408 120
similarity -0.12991822  0.043121982  -0.14090222  0.046246879  -0.067790069  -0.00099395181  0.027395159  -0.035581384  0.037891172  0.12521823  -0.0069130282  0.084903665  0.033710495  0.040311921  0.037576973  0.0037461426  -0.096363395  -0.2087086  0.075517803  -0.032854069  0.054182909  -0.013736578  0.04090983  -0.010344135  0.057550084  0.12262041  0.079859801  -0.036963828  -0.038253319  0.023096671  -0.15418464  0.046651151  0.039139733  0.12796755  0.04990596  0.20752014  0.0060439711  -0.20554806  0.11629923  0.09383212  -0.07949362  -0.032555919  0.10015235  -0.088446543  -0.069295473  -0.076301962  0.07028871  0.09001565  -0.019787142  0.12712575  -0.10984077  0.032924768  -0.12053885  -0.07956662  0.092956036  0.21910836  0.073260643  -0.04642297  0.058942221  -0.014948726  -0.024500692  -0.023538576  0.020335635  -0.0056252358  0.10112222  -0.0025645092  -0.1266329  0.095455185  0.1333213  0.032126032  -0.12987247  -0.048137434  -0.079515204  0.005084963  0.057554137  0.072496645  -0.080483727  -0.12064248  -0.10220853  0.056888238  0.01318921  0.036466859  0.16924946  -0.11746097  0.067639083  0.17859404  0.0073763262  0.10115124  -0.088361092  -0.040399808  0.041092835  -0.20850459  -0.07548131  -0.034029234  -0.085986882  0.032868508  -0.044220608  0.045398347  0.16310127  0.081307232  -0.17304635  -0.14297025  0.012954318  -0.07379321  0.037375279  -0.022590814  0.078453057  -0.11181264  0.0095481621  0.12308356  0.051676117  -0.11266582  0.19521827  0.02388124  0.055222388  -0.095853209  0.14652205  0.010345018  -0.08047694  -0.038891036
dollar -0.034000967  0.019709086  -0.10542996  0.065889344  0.11309333  0.10567737  0.031974923  -0.021472624  -0.0097179264  -0.098475322  -0.027635114  -0.047350988  0.0054950099  0.20370519  -0.014176987  -0.078959621  0.033544496  0.17598666  -0.1024517  -0.064927697  -0.10727189  0.046683248  0.019109238  0.027385384  0.020984827  -0.070522733  0.067694828  -0.066214979  -0.13163443  0.067111693  -0.093439743  0.054676034  0.12264843  -0.20976843  -0.046541031  -0.0826272  -0.044093315  0.019005088  0.10751794  -0.05334783  -0.07583566  0.19842297  0.054256726  -0.10981267  0.077867918  -0.12043072  -0.13101619  0.058292221  0.1034217  -0.18812975  -0.034846116  -0.045123361  -0.11141147  0.040421456  -0.0018612565  0.0025595061  0.011300775  -0.043781906  0.016540678  -0.037579998  0.19525081  -0.13757974  -0.010768462  0.028116988  0.063126378  -0.062913939  0.017387884  0.17223065  -0.0061957333  0.019047819  -0.20090635  -0.079723001  0.038353018  -0.10096078  -0.09313757  -0.21108361  -0.11711214  -0.060056515  0.045413211  0.026877394  -0.069228172  -0.047071714  -0.13079475  -0.12456881  -0.017556136  0.034417763  -0.054382417  0.089739159  -0.0005522478  -0.063585319  0.10606977  -0.075498387  -0.0020934336  0.14779399  -0.055471517  0.053031657  0.044021182  0.114556  0.14597121  -0.0015806665  0.061486986  -0.018295154  0.049128439  0.090530314  -0.094764128  0.077593178  0.083335541  0.10473396  0.072015911  0.083824456  -0.12807356  -0.024290636  0.11263724  0.012204287  0.079845726  -0.077227257  -0.099595331  -0.11917999  -0.17698212  -0.10690942
focus -0.024461409  0.021863354  -0.085460387  0.10459201  0.058349911  -0.1000455  -0.028222833  0.08811985  -0.023285853  0.024776291  0.07778766  0.033247106  0.060791656  0.15810868  -0.011636905  -0.034185365  0.17113978  -0.066597603  -0.067811459  -0.097211637  -0.094064839  0.026724383  0.13603806  0.053396717  -0.045511037  0.19426206  -0.075085551  -0.043731209  -0.024865817  0.10009835  -0.074653357  -0.028572543  -0.033690069  -0.053617891  0.021640217  0.012939769  -0.018636068  -0.034929421  0.017381478  0.078227475  0.004897743  0.010213064  0.091279894  -0.13667811  0.14134794  0.05611055  -0.0044849175  0.1047491  -0.0060583879  -0.012611063  -0.19944856  0.14194623  -0.13529263  -0.1114983  0.058483452  -0.044185027  0.025073726  0.22518396  -0.068086155  0.1078089  0.074878305  -0.046216574  -0.19316842  -0.044403087  0.11467887  0.0099819954  -0.043244444  -0.0099106533  -0.060763139  0.14324319  0.030457536  0.16470167  -0.0097711245  -0.067805216  0.12301078  -0.0071115745  0.11379114  -0.15008232  -0.17709844  0.057338819  0.064768985  0.10137326  0.065630697  0.00072426558  0.083475344  0.15908946  -0.038096923  -0.22145613  -0.034705747  -0.15858456  -0.0016732324  -0.18673176  -0.0054628872  -0.060558259  -0.11538608  -0.031781323  -0.0097410586  -0.098681487  -0.0062390524  0.013184872  -0.036177628  0.016946923  -0.12099688  -0.026166551  -0.17555019  -0.018119251  -0.054788806  -0.0040193298  0.08384084  -0.1658704  -0.044459496  0.052796748  -0.00046459609  -0.13529192  -0.013881885  -0.11192013  -0.12377507  -0.043754257  0.062734678  -0.040633697
month 0.062138885  0.073060632  -0.10261291  -0.092349917  -0.095002577  -0.029350528  -0.027234282  0.02837955  0.13189578  -0.026739005  0.097373307  0.10197997  -0.063177876  0.19305603  -0.12486311  -0.050601851  -0.010494715  -0.09146136  -0.058888838  -0.094891347  -0.11456631  0.0095350258  -0.052287038  0.028563838  -0.11270013  0.058709241  0.025945248  -0.042296678  -0.0031914359  -0.032695901  -0.063288808  0.067556784  0.0098182987  0.091294706  -0.018204337  0.12061244  -0.03119185  -0.14619267  -0.029774938  -0.062080469  -0.0057917726  0.16998374  0.084465988  -0.23988472  0.036237184  -0.12772472  -0.16458875  0.046475757  0.085903034  0.052118629  -0.072882019  0.11929727  -0.047475435  -0.12847458  0.11039704  0.046105254  0.038698331  -0.032231342  -0.028919369  0.055564985  0.11058843  -0.043695163  -0.029976226  -0.0075034713  0.12947902  -0.10908376  -0.035638824  0.099962026  -0.27752236  -0.05611635  -0.11963098  -0.15613459  0.09882006  -0.0026697456  -0.20421879  0.039704155  -0.039909337  0.083434828  0.098606534  0.0085958177  -0.090651169  -0.021241365  0.0057695196  -0.017740658  0.064266488  0.11359931  -0.079172365  0.051239785  0.11663178  0.0099214502  -0.045986712  0.013279934  -0.16544756  -0.011133395  0.053311672  0.0033003725  -0.092382252  0.014622319  -0.062211506  0.10619257  0.0089445207  0.050784193  -0.028037017  0.042363953  -0.15661171  0.081086464  0.010599377  0.010364387  -0.10500799  0.0028500115  0.082780287  -0.092300437  -0.016577378  -0.13138759  -0.07152921  -0.036900256  -0.08621268  -0.12012973  0.016700353  -0.27800152
mile -0.061276536  -0.074740164  -0.1560411  0.081181504  -0.0064305775  0.15582716  0.093713976  0.18035312  0.039972957  -0.16630657  -0.0084267603  0.092790462  0.0086120088  -0.033621237  -0.1591973  0.17512585  -0.030303583  -0.03672253  0.055656001  -0.19398037  0.018261952  0.15290159  0.01636951  -0.12677906  0.058667585  0.06153008  -0.079406813  -0.10094313  0.0063370829  0.024412917  -0.098815218  0.035330605  0.053843617  0.20128129  0.14179757  0.011624267  -0.0687204  -0.11941741  0.11197728  -0.015624383  -0.080325373  -0.060072798  -0.096430093  0.056578662  0.052866336  -0.031842638  0.10045402  0.012985528  0.13988008  0.1252957  -0.13316473  0.080839455  -0.045684911  -0.035487406  0.094261996  0.052232355  0.11903709  -0.14854693  0.053016741  0.076199092  0.10119199  0.078713186  -0.031981621  -0.16751415  0.079044148  0.054335605  0.075750083  0.22565073  -0.068948872  -0.145151  -0.08050143  0.01918143  -0.043802984  -0.035798527  -0.0036732832  0.089123815  -0.080818899  -0.094506495  0.056946296  -0.050857548  -0.14116582  -0.061794437  -0.0056225322  0.0082135117  0.18300958  -0.0035456314  -0.042337082  -0.01396204  0.030491907  0.047569919  0.043409225  -0.045250714  -0.026695659  -0.07792037  0.013541893  0.117227  -0.16776745  -0.0397144  0.036007598  -0.041392189  0.067676291  0.12742086  0.014877259  0.071665399  -0.014433452  0.19896227  0.095400251  0.098090574  0.038622715  -0.046469279  -0.12142253  -0.024336126  -0.021753952  0.065084957  -0.085584447  0.063532032  -0.037954722  0.020303603  -0.087213717  0.059240237
skin -0.072821423  0.041616175  0.00015504401  0.029231673  0.038964614  0.088979684  -0.031897753  0.0024336246  -0.061426628  0.17060995  -0.12278052  -0.056251843  0.033669624  0.016226485  0.093874276  0.080172643  0.050618399  -0.13553728  0.12712845  0.0099081518  -0.15638767  -0.11397977  0.12320752  0.13562226  0.16640572  0.0062033273  -0.028681388  0.15108013  -0.010972955  0.10308143  -0.072376102  -0.10698219  6.0714148e-05  -0.017067373  -0.028169239  0.021673268  -0.12357057  -0.16985413  0.091720238  -0.068127491  -0.194664  0.088281348  -0.022285119  -0.095558941  0.11082175  -0.041780654  0.17663877  0.24683455  -0.012276733  0.034331433  -0.11171392  0.039351676  0.20483668  -0.011105955  -0.10479633  0.039110929  0.063946024  0.016924648  -0.017959591  -0.070333429  -0.015635775  0.10928816  -0.073343784  -0.071721494  0.10777073  0.021430518  0.0065466035  -0.0050921426  -0.0948423  -0.024002239  -0.084974699  0.10444989  0.0046415012  -0.15577196  0.0093159387  -0.14386795  0.060523801  -0.080113389  -0.053598184  -0.0056021307  0.11331796  -0.1038479  0.095713913  0.0072098714  0.14933027  0.0034408113  -0.067479044  -0.063404106  0.0083021503  -0.14028114  0.063487165  -0.06647706  0.0090242708  -0.19826753  0.082939096  0.11302669  0.017618621  0.0059823515  0.0044737579  0.080130205  0.027219266  -0.10305145  -0.028446134  -0.0098677902  -0.016753528  -0.052780848  0.065824747  -0.06181838  -0.22266917  0.04594833  -0.16413346  -0.076335579  0.080810055  -0.016229322  -0.11953942  0.059638485  -0.068464406  0.090732723  0.0065160836  -0.056222793
children 0.026478857  -0.010269425  0.022400763  0.014645177  -0.049641442  -0.064560726  -0.12454495  0.080965713  0.17053661  -0.075884461  -0.065492533  0.0012245408  0.029015655  0.1819001  0.029979723  0.015005411  -0.04287371  -0.087929703  0.034667455  -0.018761992  -0.15834433  -0.010149062  0.080815554  0.056204069  0.019729706  0.055909816  0.019517381  0.12240368  -0.10422985  0.016536066  -0.10935204  -0.074762911  0.080486633  0.03256014  0.16328616  0.030075846  0.030672306  -0.14279123  -0.15503168  -0.13687295  0.032084033  -0.029406048  0.056608062  0.021379296  0.028565971  -0.16125301  0.20279969  0.16796939  0.029328501  0.083935179  -0.014873709  0.051100053  -0.10010909  -0.076365009  -0.049117777  0.12776192  0.016539527  0.14080861  0.0009269407  0.0080763409  -0.037408974  0.015564665  -0.008636767  0.13718492  0.14664839  0.26681745  0.035608262  -0.076480873  -0.013097427  0.01113321  -0.19446212  -0.0044835596  -0.20236906  0.0077271257  -0.10139336  -0.020220103  0.036088526  -0.041270975  0.025405712  0.032380756  -0.008527563  -0.038259704  0.054106351  0.065425731  -0.12433653  0.099771842  0.075791672  -0.10971572  0.078465514  -0.018350916  -0.22203113  -0.052663162  0.038143046  -0.16140911  0.034380231  0.062376324  -0.062611349  0.074992433  0.11393392  -0.062606931  0.052483395  0.1280098  -0.18663138  -0.041203018  -0.097300239  -0.075287879  0.069391556  -0.025855307  0.0028562935  -0.07169544  -0.12176403  0.060489811  0.0011704694  0.021557719  0.021049265  0.023519486  -0.16732617  -0.11545676  -0.072584748  -0.05682819
row 0.094912827  0.041178692  -0.077073358  -0.087260962  -0.0045284522  0.076388672  0.018643526  0.11794221  -0.057547066  0.14895667  -0.026713479  -0.002397368  -0.10220399  0.22928193  -0.11563553  0.18694897  -0.14109364  -0.16187952  -0.025407903  -0.055299275  -0.12509191  0.020880936  -0.094690606  0.00094843784  0.11313155  0.04543817  0.015778432  -0.16506793  0.025482981  -0.1493341  -0.1123125  0.15716465  -0.0097046494  0.067786559  0.086989298  0.23725811  0.098866031  -0.027760737  0.011683385  -0.015724016  -0.10898075  0.12199833  0.060477298  -0.15715051  0.17468707  0.0010240476  -0.028025722  -0.039181247  0.10425948  -0.077187069  -0.099191658  0.041500248  -0.011456989  -0.2690331  -0.10619001  -0.02600101  -0.044792216  -0.058533803  -0.016840059  0.032405201  0.096551187  0.075231396  -0.068529628  -0.056988232  0.15698214  -0.00068447116  -0.049886022  0.049782299  -0.051511876  0.0079693105  -0.12189575  -0.067993969  0.094602339  0.0017510051  -0.083106779  0.096062265  -0.058000918  0.023140594  0.06710209  0.10178519  -0.072851598  -0.038722232  0.038684156  -0.071640313  0.039789222  0.041789431  0.15307604  0.046840925  -0.071563363  -0.066259593  -0.13498695  -0.045408387  -0.11655095  -0.0026962594  -0.037778091  0.014075958  0.023449041  0.010034039  0.12665087  -0.11402391  0.081605613  -0.055387944  -0.052136272  0.10031834  -0.089726076  0.040760029  0.066209629  0.011087839  -0.062448099  -0.10003167  0.088467769  0.090027869  0.031270131  0.046664614  -0.053426664  -0.058242757  -0.16111538  0.013754279  -0.024013234  -0.12312829
wizard 0.037469402  0.13430725  -0.090590611  0.093777813  0.037639465  -0.22096898  -0.14762029  0.020321328  0.041511003  0.086037926  -0.18305163  0.021766409  0.0037785273  0.082350254  -0.017682029  0.097135112  -0.060653906  -0.11737715  -0.023367997  -0.025441132  -0.17438553  -0.050528258  0.078952663  -0.077740215  0.042833079  0.069891907  0.086130396  -0.19430254  0.12010588  0.0037115181  -0.043320775  0.13219406  0.092773266  0.11123124  -0.055483773  0.089743316  0.010031466  -0.0016363263  0.020424888  -0.011141298  -0.072344437  -0.028391931  0.20028399  -0.0065041054  0.0012257405  -0.12074634  0.112431  -0.071669437  0.021818407  0.094102353  -0.1723761  0.13410206  -0.078753412  -0.14485268  -0.151141  0.10947821  -0.018375568  0.15504381  -0.068168759  -0.0019980341  0.053639032  0.11196329  -0.010427563  -0.070356712  -0.019331811  -0.018933652  0.12849793  0.078334242  -0.02429706  -0.078424841  -0.010468768  -0.022399051  -0.061852649  0.053646203  -0.0043102968  -0.139568  0.010690353  0.066680178  0.044985238  -0.044854943  -0.037343197  0.089157104  -0.001857087  0.0045636608  0.082333215  0.035821404  0.088215709  0.0023999282  0.072238669  -0.17987086  0.12493834  -0.18560256  -0.0013166436  -0.005815817  0.067364685  0.10099611  0.00051502552  0.20328842  0.010423424  -0.0070081353  -0.014752074  -0.13378739  0.083202913  0.12733434  0.038834531  0.00049270393  0.15102561  0.14577873  -0.073615901  0.072835982  0.02231843  -0.042769689  0.037888639  0.069168448  0.20492285  0.067028746  0.01171525  -0.039021324  -0.068978876  0.091652714
disability 0.071467988  0.0064564119  0.011234053  -0.035609204  -0.066362664  0.06340915  -0.12738474  0.16927518  0.18653302  0.064175732  -0.012908266  -0.17520635  0.017567825  0.046233252  -0.01235135  0.0050132233  0.0078344857  0.0051969672  0.086124882  -0.025310839  -0.10165591  -0.061778713  0.050532959  0.066618204  -0.023435351  0.092329696  0.0075518959  0.018747525  -0.024052802  -0.049994662  -0.094846569  -0.048375618  0.073301539  0.042929687  -0.067248359  0.045228437  -0.01620264  -0.14049113  -0.0096527273  -0.17021556  0.0079517495  0.068710946  -0.24767089  0.059965659  0.0096976217  -0.013273998  0.034334935  0.0076620071  -0.031891711  0.0416473  -0.1389036  0.10206774  -0.091180608  0.022850154  -0.022481248  0.085604541  -0.066908486  0.085512534  0.0171711  0.1443526  0.083063878  0.057052288  0.02353696  0.0029998042  -0.012359783  0.17199737  0.15075362  0.037656173  0.042952918  -0.079013161  -0.15712991  -0.069193199  -0.16317706  -0.054623149  -0.050160885  -0.032008812  0.13250612  -0.027277863  -0.13842341  -0.10636762  -0.098246627  -0.0008814793  -0.0038606583  0.024169408  -0.039722998  -0.013347351  0.035139196  -0.16189863  0.13162872  -0.024921309  -0.052786794  -0.12439935  0.081944808  -0.19179393  -0.015315637  0.12808217  0.06005891  0.00037323119  0.0042616222  -0.04079416  0.024198622  -0.011505594  -0.16297413  -0.018577656  -0.25245461  -0.045353163  0.09469033  -0.24321659  -0.060073048  0.10454725  -0.063746616  0.15459552  -0.012011924  0.012435424  -0.050279576  0.015083023  -0.056634057  0.073846869  -0.055563077  -0.23325278
environment -0.11221274  0.07091669  -0.15418479  0.076370813  0.021878786  -0.052890155  0.0020175613  0.096772127  0.09235134  0.13873397  -0.13876463  -0.050929479  0.079920821  0.017211739  -0.11192697  0.051247694  0.10981721  0.070745103  -0.094955891  -0.061941817  -0.00031152624  -0.07550323  0.18952613  0.048071906  -0.068028249  0.11660323  -0.025590243  -0.067202181  -0.15109447  0.0041191145  0.028409988  -0.10425287  0.029103387  -0.012873213  0.087533638  -0.14119664  0.078625977  -0.16167493  -0.12446208  -0.10656868  0.080858417  0.057604268  0.0055972552  0.01929407  0.030296447  0.16718064  -0.029314611  0.090450026  0.022052789  -0.046883855  -0.24221347  0.029280435  -0.029728549  0.11284117  0.070024893  0.098972119  -0.030842422  0.10412569  0.021809537  0.008156999  0.044090312  0.051660389  -0.14597021  0.018650722  0.11497209  -0.028246971  0.058377862  -0.018812368  -0.015951136  0.10814019  -0.12270793  0.10404287  0.026042316  -0.13122568  0.10798757  -0.022493212  0.11014345  -0.040726654  -0.13688925  0.045380622  -0.16287096  0.10062896  0.075373739  -0.0010589776  0.11461969  -0.010489832  -0.036032576  -0.095652036  0.068689495  -0.0073296814  -0.25791261  -0.081474774  -0.13812044  -0.084481947  0.070865788  -0.081540525  -0.075526319  -0.050173026  0.073780611  0.072274886  -0.12567694  0.053678565  0.017441677  -0.1339002  -0.22558269  -0.074479043  0.065007448  -0.070910677  0.053929575  -0.036580835  -0.089415126  -0.028030735  -0.027473247  -0.10062153  -0.085253522  -0.09683761  -0.056714378  -0.016559724  0.060999639  0.021501396
smile 0.117667  0.12372657  -0.013212265  0.0072124074  0.015230589  0.043013189  -0.11550699  0.13066941  -0.18450527  0.15657552  -0.20291537  0.00062313786  0.0606714  0.088445984  0.037183933  -0.013700429  0.040730808  0.046303403  0.15099148  0.052864373  -0.17131275  -0.014024049  0.072689906  -0.0015624678  0.011287759  0.076186277  0.03812208  0.1178047  0.09938854  -0.0053087063  -0.074171141  0.051815171  0.014129661  0.015247895  0.026919743  0.018956391  -0.070876651  -0.13620181  -0.010804165  0.013422128  -0.029356174  0.031634212  -0.036918808  -0.1139584  0.034458533  -0.041449342  0.058267698  0.090402856  0.18957289  0.023401476  -0.11947925  -0.015888145  0.016558152  -0.037162248  0.024337299  0.061639067  0.14949088  0.015694709  -0.0028984749  -0.069808811  -0.090586923  0.050915811  -0.15613943  0.037982274  0.062822402  -0.054051153  0.10825803  0.050446685  0.004081625  -0.2173094  -0.22639379  0.16712305  0.014733912  0.060046889  -0.074869283  -0.076476179  -0.17585683  -0.00056653813  -0.053098034  -0.069024101  -0.029067148  -0.005148727  0.090860076  -0.0074726813  0.034591958  0.20216472  -0.065599866  -0.0076929941  0.078022726  -0.16819412  0.13262188  -0.13323916  0.16264749  -0.075053021  0.063362457  0.021477427  -0.0057076598  -0.1041489  0.15885897  -0.0070001921  -0.0067330566  -0.040769536  0.061266936  -0.10832945  -0.026077472  0.010279307  0.1930939  -0.038004059  -0.084817268  -0.03890077  -0.13915616  -0.075459287  0.07105352  0.067890368  -0.025423665  0.053980198  -0.17687099  0.038353726  0.087637141  -0.031152297
woman -0.013049195  0.011929038  0.074127607  -0.04345677  -0.053820524  -0.038931232  -0.093526639  0.28087866  0.018730178  -0.024349684  -0.041634049  -0.010823654  -0.023836033  0.15238555  0.073548481  -0.014498594  -0.066198118  -0.059084855  0.026683794  -0.066058882  -0.061890565  0.030522635  -0.051400591  0.078583255  0.086677298  0.13009749  -0.12273891  0.097914927  0.051064577  0.051164523  -0.2500194  -0.0076026116  0.021018289  0.038493671  0.10216925  0.0811636  -0.030606711  -0.12484086  -0.026609801  -0.061196048  -0.099936254  -0.034691185  0.057057057  -0.096574157  0.0032921068  -0.043601807  0.028159251  0.11209649  0.14844386  -0.076544814  -0.16979063  0.060048971  0.0605109  0.039544184  0.17671452  0.052676242  0.024142683  0.029936375  -0.030005688  -0.058444761  -0.0068955566  0.12179077  -0.083422706  0.094059683  -0.0049021216  0.090000875  0.19699629  0.02600929  -0.038005181  -0.069172919  -0.19835483  -0.12952958  -0.061351769  0.1308694  -0.14647599  -0.015439836  0.029020295  -0.07549002  -0.036288191  -0.050609652  0.016329043  -0.18114425  0.041147146  0.048451398  -0.054727256  0.14111212  0.081817962  -0.021224674  -0.019737585  -0.083031461  0.032502923  0.046349499  -0.085381158  -0.21876641  -0.066177078  0.16173434  -0.018812496  0.11498255  0.10166498  0.083444342  0.09994588  0.023454314  -0.079578973  -0.023858108  -0.1180803  0.028145671  0.21177277  -0.037277739  0.014966021  -0.12353273  -0.097341299  0.086915106  0.12786281  -0.11420108  0.011575297  0.028440079  -0.066404238  0.046962894  0.0042409599  -0.067450769
string -0.016786421  0.13801213  -0.075245135  -0.030244552  -0.045682427  -0.10395373  0.079137027  0.062778093  -0.091476724  0.041351825  -0.036212917  0.0015452075  -0.097842269  0.1444716  -0.11811306  0.028092993  -0.010225173  -0.064082883  -0.059730209  0.021327132  -0.17194702  0.053667028  0.040623881  -0.0084167738  -0.064981647  0.038884178  -0.092237286  -0.069842935  -0.083777517  -0.084538877  -0.216077  -0.029934123  0.055300035  -0.11713059  0.074049048  0.01662254  0.065305084  -0.10969725  0.065696597  0.037404772  -0.23999645  -0.0021908383  0.09978947  -0.17498463  0.073836081  -0.13466066  -0.041984826  0.067495085  -0.042464778  0.027755389  0.041977324  0.10546191  -0.12043168  -0.18138635  -0.081889741  -0.01165035  -0.047768127  0.053756021  -0.014288571  0.00024660982  0.12931164  0.12784578  0.014086031  -0.17960536  0.099223591  0.086389229  -0.032623734  0.029114071  -0.1983012  -0.044682916  0.10555203  0.17094889  0.045083471  -0.031323507  -0.14671223  -0.083365381  -0.18344924  -0.026984459  0.14276612  -0.045632578  -0.060811352  -0.04474242  0.22211304  -0.07311298  -0.003575153  -0.027092278  0.032135759  -0.012728731  -0.099748105  -0.13431931  0.033404391  -0.037517946  -0.054305125  -0.10015008  -0.099898681  -0.14464064  0.036952376  0.04595454  0.02512583  0.035191834  -0.023620032  -0.027109655  0.13398899  -0.060625229  -0.031291779  -0.053046439  0.081783071  0.015084502  -0.070841275  -0.16180411  0.061552726  0.018376892  -0.029625766  0.095774271  -0.064405225  0.071372308  -0.16460274  -0.072929263  0.0061176829  -0.076879814
liability 0.081303932  0.050417095  -0.16973649  0.043533906  -0.032017473  -0.037897564  -0.012807119  0.16954045  -0.01802445  0.027875496  -0.0031168428  -0.097992234  -0.022234101  0.013391838  -0.035114732  -0.0061038239  0.062486745  -0.062827572  0.080573671  -0.059698828  -0.00043253283  0.0065755551  0.058238398  0.024666233  -0.15480492  -0.13633144  -0.039385125  -0.12989496  0.052951507  0.049236991  -0.058306426  -0.055033337  -0.0068582837  -0.12362306  -0.086258642  -0.057318587  -0.023631316  -0.014969092  -0.0036466087  -0.18636176  0.041277949  0.090435252  -0.01516976  0.047584038  -0.061770901  -0.1226994  0.098850444  -0.051969819  -0.044906523  0.033005618  -0.15717487  -0.016226478  -0.026171025  0.055195622  0.072301  -0.049997073  -0.037419494  -0.035155706  0.11217876  0.12756662  0.241915  0.042637866  -0.083232708  -0.019439731  -0.015279774  -0.094911896  0.087691978  0.067727409  0.20718081  -0.13366108  -0.08120764  -0.051093414  0.099674195  -0.087499015  -0.0091253528  -0.08436349  0.098924436  -0.11142613  -0.1350261  -0.036894388  -0.10860136  -0.093326174  0.078436598  0.064120613  0.027094038  -0.0078367945  -0.01423199  -0.11647316  0.0024173693  -0.1742921  0.083350778  -0.084243305  -0.16326137  -0.1484151  -0.082140274  -0.066498913  0.086154498  0.033225052  -0.043385904  -0.12200195  0.00066758448  -0.051409449  -0.049572371  0.090174571  -0.1529561  -0.034999255  0.22039413  0.010575708  -0.2078384  0.035865642  -0.095319495  0.26052356  0.019807722  -0.037323039  -0.070807576  -0.082045883  0.043670326  0.022633983  0.020712717  -0.14211471
ticket 0.1252851  -0.082856201  -0.024045343  0.12655529  0.14294609  0.058846693  -0.084632367  -0.082347594  -0.0941028  0.06348633  -0.029978324  -0.105717  0.021573177  0.25362456  -0.047567599  -0.14419301  0.034585953  0.052891683  0.034812611  -0.074688859  -0.03865876  0.0060730046  0.073697671  -0.049538195  0.16521266  0.0074905581  -0.16129868  -0.097380653  0.076731332  -0.048471697  -0.084561475  0.030254992  -0.006605037  0.1047013  0.015619611  0.12014789  0.025589608  -0.094968177  -0.006914644  0.035215106  0.032949526  0.099467568  0.068491653  -0.10496021  0.073000491  -0.07058005  -0.043575078  0.0071910154  0.075367503  0.10320763  -0.1350327  0.10989547  0.0050963354  -0.095502935  -0.0010594132  0.09616486  -0.052314859  -0.099235341  -0.06445726  -0.0842105  0.17604996  -0.15076989  -0.15040283  -0.033063434  -0.11501288  -0.06481716  -0.065703265  -0.11371236  0.0473525  -0.14127249  -0.094377764  -0.16677432  0.11761089  0.0019985731  -0.04870085  -0.13840388  -0.15679008  0.021818528  0.015955729  -0.066936441  -0.1423925  0.14744894  -0.02470541  0.037309613  -0.11820302  0.13127838  -0.081902646  0.027080867  0.037196048  -0.082125112  0.17488109  -0.068805926  -0.1555509  -0.036881246  -0.045280252  0.040012814  0.038494363  -0.0085065775  0.0070867925  -0.063659303  0.049963798  0.030875441  -0.052893307  0.18141635  -0.1559692  0.017892469  0.14842112  0.036782172  0.056193963  -0.02169952  0.00096908369  0.13673186  0.019934883  -0.031895835  0.03323843  -0.018175522  -0.043386381  0.04955082  0.060388781  0.16987899
school -0.076288991  0.06117164  0.031381644  0.021126788  -0.074878819  -0.10336128  -0.15192051  0.030727437  0.11462513  -0.09889853  -0.061314687  -0.010790362  -0.0045310124  0.24859361  -0.05003392  0.17221867  -0.1317874  -0.10336158  0.037102073  -0.036888268  -0.15541199  0.13958859  0.032163147  -0.003058834  -0.012725467  0.022061348  0.068534628  -0.024204027  0.10067841  -0.065295361  -0.0069827335  0.09057498  0.15247269  -0.028436529  0.13989793  0.0067633479  0.083101638  -0.1447714  -0.1187422  -0.06459184  0.046400513  -0.028964335  0.13641883  -0.075580545  -0.017632131  -0.0065415837  0.085131615  0.047801565  0.11218157  0.10332595  0.019334119  0.12497506  -0.00016026066  -0.06940347  -0.010879319  0.088718906  -0.18256319  0.073385797  0.075481556  0.062014487  0.065704338  -0.067027703  -0.064291514  0.063088872  0.073589318  0.088775784  0.067985252  0.00086653908  0.00039451147  0.14745866  -0.24602912  0.080688447  -0.1057905  0.01017924  -0.095947653  -0.096375637  -0.109695  0.027344447  -0.02927289  -0.069145031  -0.031830579  0.0064994819  -0.11318045  0.10534769  -0.02913172  0.10417973  -0.065646395  -0.13058916  0.07612358  -0.11742726  -0.099001281  0.02611533  0.1311872  -0.18206453  -0.1257429  0.10234854  -0.10125716  0.014283712  -0.013144136  0.046293307  0.01876886  0.051442347  -0.072551087  -0.045699105  -0.092075713  -0.16631052  0.065927632  0.04309693  0.047838848  -0.10229086  -0.014404842  0.076685905  -0.052967884  0.069537565  -0.052950066  0.018467775  -0.15924057  0.013806266  -0.12486195  0.15403605
gender -0.040268879  -0.052156847  -0.14222297  -0.077323072  0.024383226  0.01671445  -0.11069034  -0.084025674  -0.034891427  0.060031466  0.001844142  -0.10370441  -0.089056015  0.06818042  0.036655534  -0.059302475  0.086667441  -0.13126825  -0.019298416  -0.023316072  -0.039037392  -0.082309  0.084669858  0.11943695  0.11064233  0.07935939  -0.090119019  0.075977392  -0.0046080626  0.047838952  -0.057052691  -0.037371762  -0.070176035  -0.014977113  -0.10433865  0.016920183  -0.021635713  -0.20844333  0.00088302535  -0.083317131  -0.18900138  0.1110578  0.030854933  0.066414021  -0.033506047  -0.082225926  0.17748988  0.11247612  0.088377275  0.052928481  -0.083893396  0.013263065  -0.065318957  0.016203469  0.24408194  0.047786508  -0.17642631  0.059618589  0.010746433  0.052227989  0.04133451  0.044900898  -0.0013593764  -0.014422026  -0.023711812  0.166161  0.16092965  0.040369745  0.077190667  0.12100458  -0.19767812  0.030313559  -0.094903283  0.052922018  0.061920479  0.048656441  0.1018712  -0.041109275  -0.073917739  -0.0049318741  -0.059630651  -0.062915929  0.049782328  0.040171735  0.056574818  0.031104552  0.017557707  -0.1486142  0.0069558024  -0.13127796  -0.11665789  -0.11594995  0.076018699  -0.19901656  -0.16910206  0.12951349  0.12052937  -0.13374446  0.051279429  -0.11945754  0.084412232  0.024881534  0.01496958  0.042135578  -0.25466046  -0.070915431  0.052822892  -0.17172056  0.014021426  -0.063949279  0.0027214023  0.12653321  -0.021558225  0.019763885  -0.016168991  -0.016007829  0.0095707038  0.087916099  -0.084424496  0.013623204
brother 0.089446887  0.078374065  -0.048638862  -0.0037222053  -0.04230066  0.042897169  -0.15156119  0.26799509  0.1456288  0.0094433129  -0.033727318  -0.0089633092  0.01116364  0.1847102  0.011731574  -0.12076208  -0.013650878  -0.0011580724  0.061461281  -0.092213705  -0.1351482  -0.021194547  0.071811169  -0.15525214  -0.12351199  0.0046984279  0.05894202  0.067669742  0.14587705  -0.060996026  -0.14579423  0.021836733  0.19104627  0.13406569  0.0029717472  0.04716929  0.039741393  -0.066631779  -0.086055584  0.050092824  -0.093709089  -0.079818636  0.23825873  -0.064333461  0.074008927  -0.22716551  -0.13582455  0.0078812838  0.035728425  0.11466627  -0.0098871896  0.11114736  -0.013662286  -0.086548403  0.01568952  -0.023815073  0.062393624  0.045163471  -0.017083429  -0.17550614  -0.011133897  0.080449305  -0.069130719  -0.03453375  0.054798026  0.11292557  0.018490585  0.020298826  -0.028621363  -0.078687392  -0.11981725  0.0052144439  -0.0072747702  0.031295542  -0.10723126  -0.10595626  0.0091678454  -0.1692238  -0.018045424  -0.035213355  -0.034146674  -0.047660448  0.06515225  0.004486213  -0.030915365  0.15517488  0.14160037  -0.12997562  0.1589821  0.001966788  -0.056921542  -0.038290028  -0.052772835  -0.11521504  0.045330465  0.1558015  -0.044988651  0.085750766  -0.01728523  -0.012503594  0.066259801  -0.092177868  -0.091839932  -0.16811605  -0.095488846  -0.0016459079  0.035815649  0.015249541  0.006447108  -0.083707094  -0.077478193  0.12968016  -0.020687403  -0.0061698318  0.088177614  -0.07358896  -0.1356722  -0.010973542  0.072485842  -0.049554821
team -0.016843872  -0.022019969  -0.061913159  0.013844254  -0.063350387  0.070732057  -0.081761703  0.075418942  0.051278673  0.11545432  0.02166917  0.0069979578  0.050689429  0.11932546  -0.16235901  0.0060908389  -0.072669469  -0.12313733  -0.069569036  -0.2265583  -0.11167209  0.066193536  0.016201898  -0.051125161  -0.011721673  -0.0027545625  0.016636468  -0.12397378  -0.082916871  0.0090467092  0.064264543  0.031274717  -0.11432768  0.052585326  0.12761107  0.036522042  -0.026620751  -0.085226968  -0.070860095  -0.068578705  0.0095623741  0.0011721135  0.062238257  -0.1638248  0.093771175  -0.13858773  -0.12064318  0.082298428  -0.0014204653  0.0091223698  -0.15007342  0.17601289  0.0366956  -0.12740916  -0.0058262381  -0.066452995  -0.045227792  0.12447423  0.1516926  -0.15989804  0.092896439  -0.10721873  -0.10477012  -0.074861303  0.090890042  0.04468229  0.047227889  -0.084044449  -0.071073435  -0.049754545  -0.23147023  0.16780268  -0.044138473  -0.11205261  -0.010590777  0.11320249  -0.041767258  -0.086023174  -0.069591664  -0.043637972  -0.028162243  0.1238479  -0.0045296019  -0.13667552  0.10813531  0.10720934  0.17969145  -0.0039111134  0.039650679  -0.10201414  0.16535953  -0.18560079  -0.09851867  -0.033994962  -0.082001023  -0.034534559  -0.095261075  -0.051110804  -0.0068460745  -0.050660767  -0.038953956  0.026050169  0.053731147  0.020420898  0.028134445  -0.089804053  0.15365879  -0.10897909  -0.084423214  -0.051920936  0.066993311  0.066431046  0.10666426  -0.01841432  -0.10341403  -0.067479268  -0.031462882  0.031445678  -0.17952128  0.034103785
mammal -0.12256578  0.11330096  -0.043859255  0.039786186  -0.0035402535  0.10460675  0.025413381  0.045168288  0.050909769  -0.1188298  -0.1035377  -0.033450004  -0.055025976  -0.0081937285  0.027232014  0.04190021  0.081618726  -0.057117224  0.071707956  -0.052042577  -0.045993295  0.06235157  0.015065471  -0.052326825  0.017130202  0.071085386  -0.020376228  0.06684617  -0.15064353  0.0071240021  -0.064318344  -0.12874088  0.069973759  -0.036717705  0.093461126  0.095777996  -0.10615353  -0.11383926  -0.0095490143  -0.012631163  -0.27242914  0.061591059  0.14551972  -0.13910586  -0.030893328  0.16254048  0.17932789  0.036676191  -0.081062764  -0.032367606  -0.076413959  0.077640571  -0.010895779  0.10518779  0.051072381  0.093638651  -0.02700704  -0.12894239  0.028688155  -0.074335329  0.17897667  0.14900377  0.15979923  0.023906469  0.10059834  0.0031770784  0.057484414  0.023401363  0.05443335  0.059003502  -0.10484489  0.14997721  -0.094023049  -0.069959179  -0.024897916  0.085133359  0.076889187  -0.06608095  0.047411643  -0.10008828  -0.068562984  0.071573943  0.024774918  -0.16009212  -0.051716976  0.04137478  -0.12097382  0.034084145  -0.13816345  -0.010477238  -0.099345453  -0.19673914  -0.042284358  -0.018160554  0.091458343  0.17187895  -0.055586386  7.7484156e-06  -0.096850187  0.032634784  0.0098331207  -0.018326173  -0.019399505  -0.072944164  -0.091857404  -0.085208818  0.071542792  -0.066426344  -0.089939632  -0.038790118  -0.19266862  -0.11097016  0.16945946  -0.10398819  -0.12706922  0.15684113  0.03880867  0.0030805732  -0.13339111  0.025823209
round 0.076388039  -0.071571454  -0.054074034  -0.15729512  0.11580137  0.15784159  0.077075019  0.11720606  -0.11217997  0.15173465  -0.24883275  -0.021292636  0.0065289107  0.085059144  -0.13379075  0.070827022  -0.047549613  0.029896259  0.073725335  0.027443603  -0.15036237  0.10794529  0.033124514  0.0053976397  -0.052469347  -0.037766699  -0.097579658  -0.033866182  -0.068574339  0.032569069  -0.19184537  0.0018222625  -0.053302456  0.080041274  0.049201917  0.1852836  0.02065517  -0.004273566  -0.028215049  0.11530264  0.098830469  0.087312341  0.11226806  -0.16242133  0.17262577  -0.12516882  -0.11375676  0.096787296  0.08796978  0.011046126  -0.081657156  0.035143226  -0.061869368  -0.13661784  0.090245761  -0.017438442  -0.055597488  0.026646573  0.1358864  0.044213176  0.075279929  -0.058191072  -0.13459367  -0.073013559  0.010854664  0.12039675  0.012207522  0.080899209  -0.13013832  -0.037712604  -0.12695321  0.060494117  0.095291391  -0.034801468  -0.0044260481  0.12450714  -0.11203115  0.10073079  -0.058905937  -0.050360296  -0.032469694  -0.029986326  0.0043737106  -0.046697911  0.089789987  -0.025314357  0.031912923  0.01470498  0.012613457  0.027115768  0.083465584  0.0080121104  0.054583613  0.10478555  0.076338723  0.049502905  -0.061162043  -0.0090807751  0.079293787  -0.080214433  0.13723202  -0.0043255277  -0.13175024  -0.088905208  -0.067879967  -0.060135942  0.14790575  0.00036241018  0.048881765  -0.12748447  0.064155757  -0.06334205  -0.027510837  0.15488824  -0.18152395  -0.053585645  -0.079467356  -0.0069896467  -0.19877359  -0.05249723
clothes -0.029908629  0.0023212405  0.052162658  -0.025749162  0.086817868  -0.077060744  -0.0081861317  -0.0055016233  -0.0034602461  0.021625405  -0.091905624  -0.018457256  0.094860844  0.1904169  0.082624227  -0.033158999  0.11652417  -0.068542853  -0.0082722185  -0.028554719  -0.094441906  -0.10688955  0.01958226  0.13287891  -0.02044546  0.037500076  -0.15872748  0.04639937  -0.019215995  -0.035637341  0.027617412  0.015673477  0.066764526  0.072978929  0.2040371  -0.0052082641  0.0014206676  -0.12115888  0.11010922  -0.1226108  -0.049128857  0.011660363  0.11005029  -0.083433881  0.091836311  -0.10067091  0.084786549  0.16511655  0.12613274  0.10445926  -0.1009085  0.026309984  0.076732956  -0.071626373  0.0276806  0.091120511  0.14457029  0.14201546  -0.066392384  -0.089775808  -0.03876242  0.0170283  -0.060115736  0.10669343  0.0080950959  0.078575633  0.042971037  0.068426564  -0.078961127  -0.057321835  -0.28060469  -0.060457982  0.015609431  -0.018321998  -0.17386179  -0.13384694  -0.033119  -0.075462386  -0.066960163  -0.050065737  0.011053687  -0.10414688  0.17551632  0.10284678  0.012252667  0.17672746  -0.058690447  0.12716523  -0.061849456  -0.14659509  -0.013459523  -0.1071078  0.080670603  -0.088170119  0.10669819  0.1953872  0.029221298  -0.043266609  0.11490024  0.05333421  -0.0017279652  0.045011938  0.05691215  0.074956447  0.1366991  -0.088775516  0.027607834  -0.014000753  -0.070416071  -0.13409042  -0.070048369  0.03373003  -0.037400875  -0.0018408508  0.14315072  -0.043766785  -0.054051578  0.11091617  0.18863787  0.046483759
sign -0.028388636  0.015500411  0.017306587  0.036536727  -0.058947947  -0.015568254  0.13081466  0.069429472  -0.10882826  0.073670655  0.065525867  0.012760205  0.068566114  0.16633181  -0.18985054  -0.026807716  0.04467129  0.050336402  0.054614104  0.13149026  -0.14380452  0.14112645  -0.025353158  0.025536384  0.014551367  0.12588456  -0.14241166  -0.0013824308  0.10234381  -0.12492144  -0.064141318  0.038735155  -0.019100407  0.0098658111  -0.088895969  0.012425161  -0.0013485294  -0.029055988  -0.059700362  0.10650756  0.043225594  0.047545835  0.10930943  -0.12264008  0.036878932  -0.04582623  -0.069111556  0.076539092  0.087125339  -0.023970731  -0.1702048  0.1308856  -0.05735391  -0.14162849  0.059833214  0.15443799  -0.057185486  -0.059768505  0.10698909  -0.029893145  -0.023554055  -0.19635463  -0.10118528  -0.070511982  0.05107582  -0.2056772  -0.10613986  0.021007646  -0.094087116  -0.15038127  -0.29034618  0.0033100587  0.081386156  0.029971914  -0.066095389  -0.04019624  -0.089907348  -0.14406787  -0.088434577  -0.023372147  -0.15883042  0.049896244  -0.0012482747  -0.041664451  -0.058090594  0.061194427  0.091003224  -0.07943473  0.05240703  -0.11896515  0.017555149  -0.056485433  0.089841083  -0.12754428  0.076483585  -0.067380331  0.0094174538  0.046680912  0.11869101  0.044610072  0.057699308  0.014954058  -0.077998027  0.059292585  -0.10826929  -0.1206093  0.129043  0.018971587  -0.18433848  0.13553371  -0.040937763  -0.044985052  0.05344842  -0.022406509  0.070429966  -0.047822114  0.011103773  -0.10995845  0.069428496  -0.10089004
street -0.082806535  0.057931054  -0.0062343571  0.043905724  0.15352006  -0.088865861  0.082716085  0.14667034  -0.052640595  -0.008266842  -0.084689416  0.099279039  -0.08901047  0.06468571  -0.042390466  0.066474788  -0.034114901  -0.016103309  -0.1216792  -0.045133289  -0.099358797  0.15325437  0.075461619  0.134545  -0.15993011  0.013502372  -0.077613443  -0.044591907  0.12396707  -0.14573415  -0.023245906  0.031770322  0.16774021  -0.017662756  0.031060271  0.23265268  0.010698959  -0.017742829  -0.0027156763  0.011410949  -0.044884264  -0.10082089  -0.079759404  -0.098830678  0.057390157  0.075106151  -0.044738468  0.029605363  0.14012235  -0.013951493  -0.15044658  0.20558979  -0.084831782  -0.01203699  0.067318849  0.12844698  0.029498342  0.032899946  -0.098696485  0.035122059  0.11134637  0.032113392  -0.023493752  -0.07892254  0.050551683  0.02484649  0.014810639  0.21479319  -0.034816384  -0.017661685  -0.11380611  -0.010675245  0.055191115  0.1073044  -0.04309278  -0.12622897  0.030363087  -0.027061308  0.078496717  0.056489691  -0.032785118  -0.057843272  -0.0071585821  -0.14080387  0.0080541223  0.0052423263  -0.0565072  -0.072369426  -0.23208837  -0.097775772  0.00058062671  0.048448429  -0.093766838  -0.16750297  -0.017553162  -0.023826912  0.016719097  -0.00036979365  0.13797052  0.07727959  0.10409486  0.071810611  0.032637041  0.20978025  0.16284995  -0.024283938  0.04507038  0.17015181  0.030813536  0.0509305  -0.13002609  0.077067472  0.026502712  -0.051058292  0.037631869  -0.12640037  -0.17005375  -0.059582487  0.034518626  0.054766938
video 0.043736532  0.26825592  0.0006648011  -0.08045499  0.13909888  -0.095961459  0.071452715  0.008330985  0.13566524  0.047127582  -0.00071695592  -0.11743069  0.099443436  0.16438253  -0.054343622  -0.10541812  0.056767035  -0.12538657  -0.0077045942  -0.15358682  -0.14929335  0.16835913  0.097980022  0.054035798  0.094507955  0.21346807  -0.076904461  -0.0726161  0.0045674909  -0.083759025  0.0073425611  0.10896884  0.020187117  0.11521413  -0.0044454248  -0.015112462  -0.014037021  -0.10896871  -0.11603788  0.079525217  -0.22667699  0.057162277  0.16782588  -0.078001931  -0.01907547  0.034622364  -0.078686439  0.060540695  0.097215347  -0.079281226  -0.083248384  0.016235301  -0.064554408  -0.081924252  -0.15152749  0.1460101  0.016984724  0.096628085  -0.089401484  0.12390323  0.0021626255  0.017737309  -0.0092462339  -0.10384522  0.061910253  0.10544153  0.031438902  -0.029630059  -0.037845798  -0.02901748  -0.08834447  -0.0083302269  -0.16473223  0.044945139  -0.018007632  -0.039022408  -0.15110399  0.049602464  -0.083851613  0.041942637  0.024686292  -0.0022412597  0.1075218  -0.096299924  -0.080099449  0.1294971  0.014280085  -0.027155655  0.12518109  -0.032464042  0.15353981  -0.01482602  0.030680917  0.024862517  0.076879576  -0.041941278  -0.12454207  -0.0006946018  -0.013166962  0.047022011  0.083270505  -0.10591229  -0.026331393  -0.062118135  -0.032310057  0.062516659  0.079573005  -0.032860324  -0.11890238  -0.066410072  -0.075492851  -0.014353719  0.091843508  -0.15723312  0.020272933  -0.14231108  0.028044352  0.086896531  0.037946984  0.11567947
lawyer -0.0250411  -0.0050408039  -0.13523811  -0.010716046  -0.10149129  -0.050657578  -0.17835356  0.20959687  0.16044901  0.046316821  -0.080051892  -0.0012464323  0.071847171  0.060848098  -0.17850965  -0.079986617  -0.037322897  -0.034917638  0.11985285  -0.11329076  -0.20295544  0.011399114  -0.037000835  0.081698678  -0.040637624  -0.1076322  -0.056346089  -0.10512704  -0.0026236144  0.081457503  -0.099190891  0.056520335  0.0869672  -0.051900279  -0.0072854431  -0.034427438  -0.024585744  -0.085252099  -0.062427763  -0.09486752  -0.023767849  0.090025946  0.17330526  -0.091619663  0.089110874  -0.062619977  -0.026308373  -0.030470558  0.13174652  0.011867164  0.039204568  0.05762767  0.10117219  0.012978369  0.021849973  0.040438574  -0.08974845  0.13369517  -0.01989723  0.055721074  0.092827357  0.10944976  0.027678248  -0.017709617  -0.012535186  0.02324109  0.051481955  0.00022922008  0.053786259  -0.020628808  -0.02109847  -0.10196535  0.053784963  0.11056907  0.080643386  -0.12641917  0.026606092  -0.2170915  -0.16192801  -0.14436005  -0.1028687  -0.039241876  -0.0017939605  -0.14330867  -0.1470661  0.25280067  0.025178572  -0.095155001  0.042558976  -0.09576162  -0.052573085  0.0049601151  -0.16462857  -0.1866557  0.011328926  0.072353557  -0.097173914  -0.033544049  -0.078201525  -0.036956977  0.091845289  -0.011175193  0.020361945  0.022673666  -0.07551562  -0.024019405  0.026392471  0.069517665  -0.049986813  -0.072385423  -0.13782141  0.059689719  -0.075681172  -0.051380809  0.039217196  -0.17946066  0.036136195  0.04942359  0.056809112  -0.16752981
depression 0.14623147  0.078060336  -0.0012899376  0.0098107588  -0.017099516  -0.053053349  -0.028107483  0.17018157  -0.014984675  0.18864115  -0.0021675148  -0.17700185  0.0025177675  0.15201233  -0.01959005  0.037874576  0.0038002625  -0.032414503  -0.033863243  -0.10100563  -0.0026233564  -0.1369331  -0.0042886003  0.18534812  -0.10657135  0.088867962  -0.052297734  0.13724661  0.026040398  0.040654693  -0.014450293  -0.1051613  0.11669707  -0.062796593  -0.035896689  -0.034221433  0.016249234  0.11112887  0.10149358  -0.10955295  -0.058514167  -0.019890893  -0.10919213  -0.051634029  0.035674945  -0.086727493  0.016408255  0.056126002  -0.012741364  0.11223404  -0.073608696  0.061043002  -0.13663225  -0.044581458  -0.02813153  0.18156026  -0.064117335  0.03901659  0.17400655  0.017018516  -0.033694651  0.07145609  -0.021089081  -0.035661805  0.14275046  -0.082750894  -0.046829876  0.073552966  -0.099632651  -0.17142226  -0.16215791  -0.0034995854  -0.052806668  -0.060466662  -0.080576576  -0.11686993  0.11212046  -0.045194894  0.036203202  -0.074211732  0.018331116  -0.071148336  -0.090857185  -0.1573243  0.1245845  0.0048585935  -0.034637339  -0.16694482  -0.20313658  0.017705623  -0.10400304  -0.014869998  0.11283579  -0.21246126  -0.040622097  0.1361326  -0.030873846  0.11625367  -0.038175177  -0.12883958  0.10204702  -0.027617684  -0.073581293  -0.031353518  0.017360214  -0.046385933  0.014374698  -0.11643368  0.059199017  -0.028421087  -0.18754332  -0.047368154  0.035941925  0.099788755  0.066035002  -0.022076519  -0.034850385  -0.098696657  -0.14359483  -0.060045365
index 0.149266  -0.098702885  -0.063063279  0.24036922  0.1200624  0.019263703  -0.038576163  0.067976929  0.13960728  0.031601556  0.095979884  0.040713705  -0.053035751  0.0075904103  -0.11658747  0.040820014  -0.0018794435  -0.02176971  -0.20881094  -0.0090097738  -0.12538989  0.11469947  -0.040807564  0.083964758  -0.027475579  -0.018553415  0.01589768  -0.035963651  -0.059936665  -0.091581151  -0.030052111  0.053679638  0.16901037  -0.0050914027  -0.26216611  -0.0013226568  -0.10435534  -0.030588748  0.048371959  -0.0999154  -0.13504976  0.12552886  -0.015501568  -0.18720859  0.11234697  -0.11025064  -0.06553562  0.2045549  0.22553782  0.033012107  0.066638313  -0.033321995  -0.044509728  0.16465534  -0.062809289  0.02972649  -0.1194743  0.039380144  -0.13465904  0.030181611  -0.026057377  -0.067797974  -0.11967946  0.066512465  0.032004613  -0.026679059  -0.0034178097  0.076848269  -0.027861452  0.089788064  -0.10343273  0.0024531656  0.19449314  -0.011218205  -0.030960444  0.087914109  0.088992  -0.12785871  -0.0056516682  -0.09336593  -0.12238086  -0.19320466  -0.065992735  -0.069989413  0.072118483  0.017281387  -0.049360465  0.12819573  -0.021040568  0.075658575  0.020939361  -0.14945799  0.068784989  0.062602721  -0.0017916915  -0.057346653  0.0030262119  -0.053634502  -0.12401938  0.06276153  0.0116736  0.075193122  -0.0019501792  0.081124872  -0.089962691  0.05970313  -0.042838443  -0.065745227  -0.059022095  0.049022656  -0.064912595  0.051964022  0.041738953  -0.023944911  0.010999324  -0.01239612  -0.084522344  -0.0026939448  -0.083377376  0.090152688
sun 0.037019145  0.1057698  -0.069319889  -0.054673247  0.090607047  0.065491907  0.073874079  0.15789464  0.00070488336  -0.04020296  -0.19576359  -0.040835444  -0.083082139  0.11501308  0.01970689  0.032890536  -0.0015409022  -0.11055536  0.038614564  -0.053313293  0.057481408  0.094746716  0.027316991  -0.060856085  -0.057310052  -0.076551661  0.088347971  0.029217653  0.14413825  -0.046432942  -0.030070048  -0.012828655  0.10868093  0.0784612  0.025751235  0.0082088346  0.070374891  -0.15737812  -0.073521376  -0.18216462  -0.16489258  0.15579088  0.086818837  0.0055676112  0.1472539  0.030269334  0.02374829  0.17983565  0.17357543  0.0038090756  -0.047743026  0.099267654  -0.017012469  -0.053845085  0.054656487  0.13165894  0.080906443  -0.024830468  0.11817805  -0.008579528  -0.087709568  -0.034788903  -0.22661103  -0.01154673  -0.014571025  0.02236527  -0.0029259583  0.15953374  -0.039580692  -0.003930477  -0.073306158  0.12735189  -0.093813688  -0.081191078  0.12356084  -0.095460229  -0.020827472  -0.057024792  0.12353083  -0.099259473  -0.053126585  -0.057918742  0.077838182  -0.10133648  0.13934828  0.077520527  0.12787108  -0.031374592  0.04020153  0.02097916  0.041042294  0.024900479  0.0013806156  -0.069798164  0.15827869  -0.056108665  -0.018908493  -0.065245137  0.016196946  -0.051698092  0.019105304  0.012523366  0.01632479  0.095084973  -0.03346651  -0.022766463  0.12306298  0.086957656  -0.048856035  -0.035875697  -0.19389661  -0.25351328  0.13310409  0.026708178  -0.15632942  -0.13454126  0.04703461  0.095876142  0.073546983  -0.062240746
cell -0.10559998  0.076458603  0.0213497  -0.014330436  -0.11323198  0.058851473  -0.038141839  0.047884289  0.045603748  0.03961334  0.053227123  -0.083247878  -0.040918436  0.16954781  -0.0023017714  -0.12627125  -0.12092742  -0.1661932  0.071367763  -0.093901701  -0.096422173  0.071993902  0.053278618  0.029996132  0.23337545  0.080149852  -0.10351466  0.067026697  0.043214817  -0.051945005  -0.12558822  -0.031459648  -0.042750336  0.021442216  -0.030611157  0.0039047117  -0.036939271  -0.037214536  0.0048455279  -0.029711831  -0.17917046  0.11199511  0.081454143  -0.092054717  -0.0017633706  0.051715177  0.15179311  0.16312076  -0.044534504  -0.098509416  -0.10466471  0.10081497  0.19298089  -0.14733753  -0.086359762  0.036637902  -0.060444787  -0.052420735  -0.032019433  0.041273892  0.095821097  -0.030441865  0.11470834  -0.021655219  0.0054502352  0.14841573  -0.062496878  0.010821002  -0.10541245  0.069392323  -0.061612856  -0.025053797  0.055759512  0.0058036088  0.067259856  -0.016346101  -0.0020194093  -0.10843109  -0.087741181  0.11886217  0.087321296  -0.14031586  0.048656885  -0.19563295  0.073917978  0.018603481  -0.084522836  -0.13027945  0.11413009  0.18336135  0.13425604  -0.022293784  -0.083153069  -0.17953926  0.0033661269  0.044587672  -0.12791342  0.0857412  0.060658015  0.095359884  -0.037104752  -0.094640024  -0.020088146  -0.1200835  0.016263282  -0.049800701  -0.014831322  0.022025999  -0.078388721  -0.037869517  -0.23637697  -0.014949837  0.076972023  -0.11013684  -0.085156739  -0.14032981  -0.033444721  -0.019598952  0.08758983  0.056903418
nurse 0.012644279  -0.0070267208  0.14256491  0.07393574  -0.072936669  -0.071805872  -0.20937294  0.21113549  0.10494529  -0.0057307524  0.042215511  -0.015373608  0.064269856  0.043266173  0.10625468  0.17558205  -0.10693822  -0.14212359  0.1051872  -0.027394615  -0.045208652  -0.074382499  0.11851279  0.09948834  -0.036922481  0.053836595  0.045021292  -0.047070637  0.074331708  0.16662392  -0.099272907  0.014582331  0.077780403  -0.086582199  0.073226266  -0.012896313  -0.043062866  -0.13704769  -0.0080843559  -0.15951906  -0.045525197  0.11767133  -0.045891635  -0.17593232  0.04236472  -0.0015508177  0.039290678  0.12173813  0.17447683  0.061925381  -0.077877678  0.08992026  0.12607151  -0.064123653  -0.034624256  0.012030102  -0.076270163  0.049406882  0.022070533  -0.0056106267  0.011530751  0.079325557  -0.0035112852  -0.012684552  -0.054883961  0.079001337  0.15888226  -0.028907496  -0.046074767  -0.11315721  -0.27640939  -0.071731701  -0.046352934  -0.0031503213  -0.23946205  0.033005036  0.06007003  -0.23703451  -0.10866435  -0.0043226834  -0.021658717  0.010577897  -0.0029342361  -0.0067738905  0.0035318625  0.092451304  -0.021755964  -0.0029543431  0.096815452  0.023533368  0.04598628  0.045067608  0.076630279  -0.12868151  0.029938823  0.059653286  -0.083650306  0.08822301  -0.059669476  0.054919634  0.076787524  0.022478659  -0.16597342  -0.15360738  -0.052491643  -0.086186327  0.065227143  0.015585012  -0.019568078  -0.040521517  -0.047829296  0.051339567  -0.02921097  0.061741821  -0.043227945  0.028916784  -0.17850628  0.050916918  0.038156744  -0.10540482
bird -0.022486107  0.07021188  -0.12623887  0.10316669  0.052126251  0.058743473  -0.019308174  -0.052963305  0.11874571  -0.017109867  -0.18316722  -0.056348357  -0.041246407  -0.095374011  -0.041817222  -0.075398318  -0.13852644  -0.093043573  0.11084883  0.015241045  -0.1103157  -0.030887883  0.16281071  -0.0094089601  0.052279517  -0.016964234  0.098913148  -0.0035030309  -0.10311242  -0.002118523  -0.15273081  -0.085248113  -0.025090087  0.09693712  -0.012870704  0.078176923  0.035603844  0.005067375  0.024004154  -0.075766616  -0.21471737  -0.069888428  -0.042759433  -0.094829187  0.16666804  0.039948232  -0.070411563  0.063527256  0.069526874  0.049738318  -0.070674196  0.15708923  0.005333961  -0.064846769  0.018350104  0.082025662  0.0092848968  -0.0054358356  -0.006768648  -0.10178674  0.082796358  0.13429904  -0.023724766  0.020088419  0.2079359  -0.015523301  0.052607395  0.17505564  -0.082562223  0.076877959  -0.14050007  0.028653001  0.010654687  -0.045543808  -0.04267868  0.024938192  -0.033084262  -0.051770054  0.015125274  -0.079321861  -0.10165033  0.21077232  -0.039956905  0.096257359  -0.0051665483  0.060016222  -0.01556267  -0.029489065  -0.052987784  -0.072169065  -0.13384542  -0.14672147  0.058818642  0.10397851  -0.057028908  0.060995225  -0.13514619  0.023199448  0.056196414  -0.016384644  0.025181575  -0.09547665  -0.15351379  -0.035797201  -0.073053449  -0.036603782  0.15212271  0.045505308  -0.20113225  -0.13899617  -0.23291516  -0.063342951  0.18206808  0.034137528  -0.13303018  0.12614241  0.061139535  0.011169023  -0.014051153  0.05920824
water -0.11447014  0.12056792  -0.078782469  -0.085276425  -0.097978815  0.044870477  0.10899877  0.131036  0.16485755  -0.032219008  -0.1884204  -0.0069437427  -0.024580404  -0.056079589  0.076252632  0.07244508  0.021651348  -0.023172766  -0.013445011  -0.054563705  0.093995228  0.074188463  -0.0086493902  0.034725305  0.10356066  -0.005210388  0.0053867958  -0.036951393  -0.089539945  0.066171512  -0.072789505  -0.05690911  0.11583654  0.046044581  0.19903059  -0.14701125  0.062664494  -0.12968253  0.060232092  -0.11094493  0.0048216595  -0.016000025  -0.01247593  0.048911754  0.17639188  0.15518954  0.077319965  0.20185521  0.085053004  0.062362429  -0.076403648  0.020504585  0.042390864  0.0066369055  -0.068570599  0.13598387  0.043228537  0.049778111  0.052884653  -0.02188246  0.014836221  0.077620111  -0.040593617  -0.16445202  0.096471034  0.036466837  -0.08613953  -0.0084375963  -0.082822464  0.013375099  -0.28418756  0.1686275  0.001105631  -0.13712858  0.05288709  -0.0098451069  -0.053713404  -0.088709593  -0.073992737  -0.080604777  -0.00945614  -0.081795581  0.0060821534  0.091640204  0.094361454  0.060226738  -0.027703235  -0.032172706  0.030640325  0.031884134  -0.14583208  -0.13411336  -0.072901882  -0.11509914  0.12928443  -0.076331764  -0.083765663  -0.010104111  -0.026603892  0.014670406  0.11764417  0.080372356  -0.071065776  0.11526558  0.065091185  -0.054326087  0.19913466  0.017258599  0.094733208  0.00056547462  0.0011035698  -0.22409712  0.0487643  -0.0089960061  -0.095913619  -0.025360366  -0.093814023  0.072105996  0.10794238  0.044586565
baseball 0.035082653  0.0078218803  -0.065929808  0.09648861  -0.15101814  0.052009832  -0.025976345  0.075981863  0.04407876  0.17980936  0.0045100157  0.029798819  0.0068087177  0.16889559  0.029629806  -0.10566603  0.03143454  -0.11154271  -0.15917186  -0.08205694  -0.017474083  0.11284964  0.00059949775  0.13747624  -0.020716757  -0.051222522  -0.02810996  0.11070085  0.13409111  -0.10249888  0.11973296  0.043770634  0.091243401  0.1251654  -0.040153738  0.013622101  0.0016694922  -0.042693503  0.10202736  -0.014258895  -0.11095392  0.078383766  0.12937295  -0.031309329  0.1525282  -0.043973912  -0.039669484  0.084108613  -0.0073680729  0.14553565  -0.19927692  0.11484665  0.07751929  0.03527214  -0.013982054  0.02586068  0.022786731  -0.0012254858  0.041608185  -0.13917476  0.13278107  -0.08747422  0.033464156  -0.033816472  0.098808758  0.012724028  0.016787512  0.14746413  0.043935653  0.0056602196  -0.13547799  -0.017605467  -0.13278462  -0.13720846  -0.090363234  -0.020775862  -0.12809147  0.032031875  -0.020511463  0.033913907  -0.11472453  0.1361205  0.030932616  -0.13371408  -0.07841529  0.18502338  -0.017355546  -0.071999162  0.075454988  -0.093305193  0.17900741  -0.045452509  0.083383344  0.060710333  -0.11668597  -0.0148821  -0.046665169  0.0087949149  0.064935297  -0.06130752  0.10915818  -0.11930403  0.006018132  0.11821858  0.067794405  -0.16468103  0.13227411  -0.15299559  -0.0073005939  -0.11478701  -0.0071628941  0.0348427  0.18408202  0.064280912  -0.061295167  0.015748607  -0.060934845  0.056434523  -0.16364838  0.011173734
change -0.047083788  -0.040655445  -0.068103418  0.031006098  -0.093973987  0.01783647  0.12653777  0.089737386  0.032650482  0.079065375  -0.015851913  -0.053786308  -0.037642032  0.064351872  -0.059762493  0.041005425  0.13403924  0.080184899  -0.026393374  -0.020829445  -0.046183195  -0.085476667  0.070930831  0.037042577  -0.021668436  0.069114797  -0.03024265  0.082450755  0.010201204  0.062049478  0.00052314677  -0.064610966  -0.071482003  0.0037816497  -0.087654673  0.050441183  -0.008573994  -0.067086205  -0.08277268  0.068380624  0.032489367  0.096763238  0.095954694  -0.11566983  0.19425409  -0.092040546  0.063636445  0.010221322  0.053611107  -0.042823236  -0.15439299  -0.029188527  -0.089954391  -0.025178378  0.10450444  0.21675132  -0.20381975  -0.0031081343  0.085532755  0.053473461  0.20350671  -0.056494076  -0.18106398  -0.050229296  -0.024612172  -0.025667852  -0.1145186  0.13845767  0.060929254  0.043808263  -0.16688965  0.20914833  0.018551905  -0.075009279  0.17203994  -0.02363101  0.083431438  -0.097595923  -0.086058766  0.026288856  0.023799969  0.13935259  0.093439229  -0.0017931468  0.095726348  0.097193815  0.044752769  -0.062257648  0.038073592  -0.023377098  -0.079432495  -0.1596695  -0.023082821  -0.13618062  0.016554182  0.057120096  0.057118744  0.0070919208  0.038353816  -0.066334739  -0.13400646  -0.03131526  -0.11944062  -0.065299332  -0.15616366  -0.13971058  0.14859459  -0.090165138  0.034857452  -0.15569872  -0.067296624  -0.042580768  -0.043465503  -0.12819344  0.0094568301  -0.09571559  0.12272435  -0.072809651  0.22244516  0.0025712755
boy -0.020421939  0.081073105  -0.023722799  -0.020662922  -0.10219144  -0.099904411  -0.038256433  0.27432171  0.25990415  -0.06795162  -0.062704891  0.091000631  -0.0014248485  0.22200932  0.11994163  0.048533548  -0.042022333  -0.017599054  0.027102351  -0.036089845  -0.14001238  -0.050126996  0.049229227  0.032010227  0.074706592  0.11328304  0.014083554  0.12745737  0.051194098  0.0089141969  -0.10042183  -0.02633436  0.13780051  0.10597637  0.080415606  0.056520756  -0.046947382  -0.11671831  -0.025756311  0.064870045  -0.051570691  -0.072549798  0.15979193  -0.11881617  -0.054296792  -0.067571931  -0.0067539886  0.11729669  0.090632029  0.02394673  -0.11710199  0.2212414  -0.048126776  -0.11790583  0.025678748  0.092972174  0.065387979  0.11282814  -0.0175926  -0.15335937  0.043797165  0.062876284  -0.081363037  0.047486175  0.090602338  0.07565172  0.081168763  0.023840072  0.058497854  -0.045458037  -0.12584537  -0.074046567  -0.080691941  0.12477025  -0.172212  -0.058004621  -0.008704925  -0.058384821  -0.012652554  -0.033291038  0.02407551  -0.067938596  0.015341924  0.0075775329  -0.0025440417  0.17313048  0.18433025  -0.10168467  0.032932937  -0.019752089  -0.023254845  0.0085831461  0.028245179  -0.066203706  -0.037325658  0.13027951  0.0064310306  0.14488  0.0048688799  0.14336781  0.10793427  0.0074079428  -0.041383605  -0.062558651  -0.0364988  0.029214917  0.2396345  0.040057015  -0.071145557  -0.13542856  -0.035771567  -0.028222229  0.06697993  -0.05368242  0.021208808  0.067487724  -0.071053647  -0.037238419  -0.074671544  0.035251368
substance -0.016115893  0.076218367  -0.065114714  0.19620536  -0.12598202  -0.091515191  -0.060710378  0.098109819  -0.014353178  0.11907224  -0.1072294  0.20554978  0.029568177  0.1143893  0.011815472  0.018053694  0.0093909241  -0.098085172  -0.066633925  0.075450733  -0.0099104624  0.011137674  0.13142718  0.11455173  0.11943483  0.013967526  -0.15940677  0.01677628  0.0059378617  0.23843302  -0.0097812815  0.032120746  0.15341826  0.023335742  -0.051238239  -0.16070262  -0.11877688  -0.0032282758  0.17771606  -0.036055338  -0.09973605  0.088941231  0.080879271  0.1027703  0.099535927  -0.054040898  0.083209597  0.16520923  -0.026245633  0.047085896  -0.093941391  0.15416937  0.083232448  0.018536787  0.026467739  0.075128406  -0.036601387  0.0050181402  0.096010864  0.02137218  -0.02429498  -0.12616499  0.0026924182  -0.0082641682  0.10493805  0.055445582  -0.048998702  -0.10705061  -0.030462135  -0.020439796  -0.17209813  0.043611515  -0.14479084  -0.055871122  -0.06996996  -0.031876568  0.042353746  -0.028763592  -0.0014933324  0.054928165  0.073135316  0.017416712  0.074523762  0.089593902  0.046110518  0.24194376  0.054867674  -0.099649295  -0.10791961  -0.058181815  0.011152778  -0.0019642389  -0.065359563  -0.16813849  -0.097411714  -0.086205691  -0.060028747  -0.059004962  -0.089828931  -0.081972905  0.081169724  -0.13177864  -0.17776012  -0.00084578327  -0.030652963  -0.0084196227  0.16199991  -0.089149505  -0.10026172  0.030635417  -0.064263128  0.03560926  0.060614295  -0.060793448  -0.11935111  -0.046520777  -0.066864438  0.034986001  -0.10210843  -0.036718551
experience 0.11407304  0.058109704  -0.10914415  0.17199594  0.091719098  -0.05618551  -0.20277363  0.14795965  6.9739282e-05  0.17338611  -0.0812013  -0.14381753  -0.043216661  0.088135719  -0.15663521  0.0096632242  0.10142604  0.0095648533  0.0041769356  -0.1552106  0.022049528  -0.070680164  0.20093663  0.0109267  0.045871504  0.13805275  -0.026050393  -0.032407016  0.085834295  0.11867727  -0.14570127  0.013873938  -0.064836308  -0.0001639913  0.030547203  0.017648889  0.050944321  -0.10905521  -0.051043779  0.0032815982  -0.031408291  0.025138805  0.013431631  -0.069649115  -0.089559898  0.010644813  0.011383045  -0.086962305  0.046538949  0.050639849  -0.11825611  0.1317635  -0.13476457  -0.0014735936  -0.054898947  0.11665182  -0.064899094  0.17797586  -0.00075093732  -0.059564631  0.064393185  0.082997985  -0.1125442  0.079129584  0.094626352  -0.03378132  0.047259141  -0.096436657  0.057338469  -0.053278301  -0.17636162  0.090060085  -0.067821868  0.0086282715  -0.015657132  0.051360309  0.21117938  -0.023941875  -0.17765468  -0.060361475  -0.15544501  0.027805386  0.069831192  -0.045910742  0.18542627  0.035619657  -0.055423174  -0.087489851  0.091273434  -0.15441392  0.079780534  -0.10168605  0.065267131  -0.11705747  -0.065647557  -0.097552776  -0.091441885  -0.1372118  -0.015365168  -0.0023785634  -0.060227577  0.054719694  0.040183064  -0.16554137  -0.031277291  0.029477667  0.070070572  -0.082953319  0.022027737  -0.081152722  -0.058890741  0.025757842  0.024896676  0.053353984  -0.011510051  -0.034190957  -0.12081489  0.12971365  0.079663247  0.010060654
credit 0.072070062  0.12835878  -0.046735644  -0.072650813  0.10852787  -0.011321479  0.033630684  0.069509231  -0.086554505  0.054162376  0.012032233  -0.062662721  -0.11048739  0.15599543  -0.021076832  -0.093524024  0.0072333892  0.097876102  -0.013806727  0.11153193  -0.036723748  -0.066684492  -0.0085984664  0.12839794  -0.13610528  -0.013693154  -0.18380113  -0.12139971  0.040501393  -0.071371943  -0.014044378  -0.15471317  0.098444961  -0.12941445  -0.16573891  -0.00095180096  -0.083392195  0.0072060581  0.043951165  0.024598211  0.17669243  0.1268765  0.024141893  -0.13060516  -0.10048002  0.0538272  -0.044422932  -0.010758124  0.022076422  0.031064935  -0.17182378  0.11359646  0.041143049  0.063745528  -0.054997452  -0.0031840454  -0.067782931  0.083304122  0.11270721  0.13572735  0.14040318  0.056370575  0.01098262  0.07926929  0.1033633  0.06618987  0.087450653  0.02352904  -0.05080276  -0.23286834  -0.061906006  0.085998662  0.21964669  -0.078405447  -0.12743875  -0.17004479  -0.018001791  -0.057748899  0.018013196  -0.066593766  -0.11025203  -0.1332095  0.0097558219  -0.029255869  0.037191626  -0.013462539  -0.08827801  0.0012893588  0.081205919  -0.035479844  -0.063625723  -0.11645748  0.023918204  -0.0076222303  -0.033723362  0.021208318  0.045125414  -0.0033209075  0.065115891  -0.091194816  0.0072742961  0.010714795  0.063673913  0.11906059  -0.18582638  -0.10157485  0.2530719  0.061399579  0.13570282  0.059778024  -0.15991966  0.022975156  0.06466876  -0.072567485  0.037164822  -0.029279178  0.02528712  -0.056590255  -0.046515338  0.057643916
airport 0.078733526  -0.080249108  -0.06718275  0.10517455  -0.043524701  0.017333295  -0.13348372  0.073699944  -0.054301832  -0.03784043  0.023623265  0.088672847  -0.071483143  0.070401661  -0.04323433  -0.055756107  -0.0071564298  0.096688509  0.21123134  -0.066556916  -0.17222545  0.071034521  0.11230821  -0.043635681  -0.046985582  0.016043123  -0.15492971  -0.055252116  -0.014284157  -0.11587798  -0.1192277  -0.12706405  0.083343938  0.20866778  0.08578559  -0.13774911  0.048314895  -0.16082628  0.026144268  -0.09655536  -0.0098170871  0.018497687  0.0031036162  -0.17715971  0.14545016  0.15452102  -0.022885721  -0.049638893  0.07867647  -0.11645293  0.008048078  0.16986628  -0.014968689  -0.010008398  -0.033412769  0.010747322  -0.084553711  -0.030407472  0.053414967  -0.057053976  0.084268682  -0.015382583  -0.18171202  -0.001578258  -0.020380974  0.099483646  0.026576756  0.02722203  0.016753176  -0.044950377  -0.11931906  -0.15970439  0.0960043  -0.0088271592  0.016716048  0.0080136443  -0.098173685  0.044823788  0.023624994  0.041408297  -0.05668956  0.02568835  0.065441735  0.046341065  -0.060253207  -0.086338624  0.011876677  -0.003259893  0.089037798  0.11600114  0.12462851  -0.09816166  -0.059317499  -0.12131681  0.0010239617  0.20488852  -0.10612012  -0.064227566  -0.029894065  -0.021110525  0.11982812  0.11493424  -0.18619278  0.17580517  0.087109633  -0.064523064  0.077430978  0.06386248  0.14049971  -0.074470654  -0.19592103  0.012737692  0.0063465824  0.0015017573  -0.056230821  -0.01122  0.070261955  0.078435428  0.11377633  0.095367752
defeat 0.21353111  0.028334048  -0.16231158  -0.025090534  0.00083875022  0.13290098  -0.023569703  0.1481365  -0.008874502  0.19281618  -0.054098226  0.033179816  -0.074577913  0.13144116  -0.036074765  0.17960747  -0.023675619  0.024699349  -0.095772773  -0.051753774  -0.19903639  0.086354636  0.057812985  -0.015413022  0.024741096  -0.096508324  -0.029318554  -0.0071765133  0.027464041  0.026415512  0.071403459  0.070503898  -0.053558547  -0.025057962  0.16801502  0.079027131  -0.009136687  -0.04303132  -0.035034876  0.10781748  0.005711522  0.029659867  0.028502056  -0.14197256  0.063221648  -0.16182013  -0.038316373  0.0075464668  -0.082287841  -0.088557646  -0.074825719  -0.12896879  -0.062662244  -0.13445199  0.056115709  0.040054075  -0.12846862  -0.017450467  0.10231756  -0.023117384  0.004567551  -0.012615704  -0.1863268  -0.13847147  0.073520347  0.074111797  0.060695793  0.028728444  -0.094538152  -0.12266826  -0.16538452  0.037505105  0.25544453  -0.062665582  -0.0051894328  0.082317606  0.1321989  -0.038595352  0.0087725651  0.055242941  0.024606694  -0.012715066  -0.045475237  -0.044754215  0.083659008  0.17439246  0.07719852  0.13063151  -0.049915209  -0.050522305  0.1155965  -0.071660221  -0.10212784  0.00092197594  0.079534918  -0.078986153  0.027648028  0.039577242  0.066907153  -0.11313006  0.05016024  0.091496855  -0.13534361  -0.062905088  -0.045048788  -0.084558822  0.049763683  -0.032070152  0.023707686  -0.10505095  0.023899715  0.042389929  -0.057041686  -0.067167707  -0.14796013  0.0055272393  0.046664152  -0.13814139  -0.1979174  -0.057767667
popcorn 0.02357796  0.023796113  0.017154934  -0.089991115  0.068911433  -0.11543259  0.11188144  -0.049205448  0.051179998  0.028563144  -0.26262006  -0.054207504  -0.12838022  0.088373311  0.089435637  -0.067546561  -0.0069993339  0.026621455  0.0049727065  -0.018281214  -0.031496353  0.098102681  0.22927749  0.075940825  -0.013254993  -0.039474644  -0.12130021  -0.028520359  0.01814156  -0.037523221  -0.12506256  -0.026854031  0.17089686  0.010171652  -0.10580438  0.12500989  0.11245582  -0.12974483  0.069713712  -0.046003435  0.028733857  -0.0057500973  0.0045018112  0.0026021143  0.13921788  -0.019706355  0.10949079  0.0064261719  0.10585513  0.018415827  -0.21066923  0.086680591  0.053484954  -0.048891749  -0.21599533  0.0082132211  -0.056358982  0.010137244  -0.041241739  -0.064498149  -0.17833975  -0.087490238  -0.045254879  0.0082780896  0.16521841  -0.10241785  -0.049879733  -0.012913045  0.051017977  -0.024789151  -0.081784576  0.070921823  -0.056090862  0.075970538  -0.046239179  -0.23687038  0.032094318  -0.14363185  -0.032497905  -0.071058273  0.079438612  -0.082923315  0.037683699  -0.065667272  -0.1036793  0.12728681  -0.083771043  0.00038660076  0.018521933  -0.010590005  -0.0036247619  -0.11277533  -0.077907592  -0.03965421  -0.05483368  0.0198246  -0.11480045  0.03867216  -0.001851856  -0.02291609  0.1513443  -0.047187023  0.0023836894  0.049975526  -0.030859029  0.099904612  0.090026557  0.047076892  -0.12152061  -0.021228481  0.032763064  -0.033710331  0.17082144  0.1907095  -0.0052010156  0.21696761  -0.070852853  0.050588369  0.040829606  0.13269289
implement 0.032906923  0.078823179  -0.10846566  0.10476088  -0.064309627  -0.017842043  0.086411178  0.080909327  0.10364481  0.072864071  0.076142356  0.13008229  0.056734715  -0.18178801  -0.058244694  0.017062886  0.23282385  0.068467267  0.054898042  0.010704533  -0.17228107  -0.07464049  0.11302723  0.10087818  -0.14703138  0.13698886  -0.067664407  -0.056601051  0.087611288  0.039901216  -0.15069517  -0.039732084  -0.050094064  -0.11055531  -0.037151031  -0.10808493  -0.015412481  -0.055346362  -0.082069211  -0.0049461038  0.13358176  0.047515828  0.18069571  0.016832117  0.078116193  -0.10460959  0.10815212  -0.022674607  0.052011415  0.023715807  -0.14250761  0.025145026  0.10411881  -0.10964891  0.012131762  -0.0066031283  -0.12222375  0.088173181  0.17216569  0.1816062  0.12773672  0.034194816  -0.24566068  -0.033030894  -0.020964418  -0.0018824807  -0.0064138197  0.17307372  -0.065902866  0.0057824408  -0.16259807  -0.029806444  0.077034168  0.02405547  0.006253785  0.041828517  0.1093309  -0.063019842  -0.13215257  0.041593775  -0.014891522  0.052823178  -0.022686549  0.00020129433  0.10625498  -0.014028619  0.01441988  -0.14609151  0.18946984  -0.026009269  -0.034111232  -0.10350642  0.019960716  0.028306603  -0.024796899  -0.041241974  -0.034545593  -0.13136832  0.019780761  0.039329447  -0.13153796  0.027973685  -0.071695171  -0.041167881  -0.12272613  -0.16345802  -0.010755876  -0.043978862  0.097882971  -0.072966456  -0.016079048  0.069139332  0.11565406  -0.012003985  -0.088052139  -0.046395697  0.077087462  0.006502124  0.071042545  -0.039017681
quarrel 0.14625733  0.04389111  -0.037601206  -0.095974654  -0.010478387  0.0082981195  -0.09690132  0.13714415  -0.043739025  0.098771945  -0.019934358  -0.010355511  -0.086015217  0.15860736  -0.1254828  -0.021790957  -0.043412808  0.055985112  0.041441645  0.058547925  0.018407933  0.048891343  -0.00092097564  0.027507138  -0.027493782  0.059326038  0.007808879  -0.028295852  0.10721204  0.1992546  -0.18542325  -0.044403106  0.059672359  0.049138039  -0.082620218  0.0852722  0.22010008  0.0018302251  0.16783546  -0.081168793  -0.12408169  -0.17235984  -0.040142473  0.085060306  0.015937446  -0.018549632  -0.020277033  -0.12987749  -0.024380069  0.046311609  -0.12619956  -0.065062225  0.11047179  -0.077647775  -0.15519488  0.068282686  0.096700922  0.034978312  0.082048319  -0.015874835  -0.11135019  0.011131437  -0.13210543  -0.13591246  0.13001718  0.036288161  -0.07376726  -0.019855473  -0.023925574  -0.11380372  -0.14162561  -0.14896634  0.10696275  0.14053412  -0.049605429  -0.12317412  0.06308689  -0.14002129  0.067064241  -0.085839838  -0.063222736  -0.050829217  0.10143987  -0.0012745203  0.083392397  0.14380871  0.11815048  -0.10371744  -0.081293456  -0.097422682  -0.025783606  0.15462983  -0.12457945  -0.062214736  -0.095053256  0.083503462  -0.021902516  -0.035335857  -0.025933729  -0.037827179  0.030641798  0.020296326  -0.11307406  0.09356609  -0.067907393  -0.062286668  0.11762848  0.072904073  0.098918311  -0.076674208  -0.0057515348  -0.028497903  0.046352092  -0.078062221  -0.14894466  0.053043522  -0.085098654  -0.17568423  0.084795989  -0.024225671
maker 0.1241443  0.070550978  -0.16055156  -0.1436508  0.091436714  -0.11498233  0.091120698  0.17442176  0.024536254  0.045013066  -0.14613998  -0.092666723  0.050508797  0.17558368  0.010675943  0.053633749  -0.15775728  -0.10467223  0.028627023  0.0079847798  -0.025352016  -0.0018926531  0.051837351  -0.014263106  -0.12610182  -0.053619023  -0.040259354  -0.006543648  -0.020362979  -0.034007274  -0.10520414  -0.002248337  0.025724366  -0.10883398  0.053279169  -0.017836971  0.092728622  -0.09142974  0.019471725  -0.098319389  -0.26300934  0.033757675  0.15796039  -0.10089543  0.095489211  -0.060971711  0.067686975  0.11461119  -0.02457758  -0.16505587  -0.093202867  0.051300727  0.049868185  -0.10991491  -0.038437299  -0.060701769  -0.020427698  0.092245631  -0.052854102  0.062225424  0.040149823  -0.14868779  0.073404998  0.2686336  -0.023301858  -0.093357556  -0.037739996  0.076916091  0.098841742  0.010964219  -0.075356238  -0.12254197  -0.047724802  -0.073825806  -0.038779695  -0.055876557  -0.058555812  -0.16420104  -0.049189467  0.059220456  0.043803215  -0.0038825306  0.091090545  -0.06837821  0.0587231  -0.012983594  -0.080397114  -0.15208223  -0.014041229  0.054245777  0.14655839  -0.096905224  0.00075724703  0.07639198  0.11431162  -0.14116479  -0.11096513  0.0028638218  0.037553869  0.13026248  0.18180557  0.0044635613  0.13688156  0.051690955  -0.05178757  0.1045054  -0.031328004  -0.025622169  -0.032452222  -0.0086913779  -0.041851655  -0.083272561  0.0057937591  -0.15166588  -0.10569712  0.016848948  -0.0075734127  -0.011471616  0.016447747  0.11904439
love -0.001198283  0.12634602  -0.043667808  -0.070605241  0.02929965  -0.11519081  -0.14617851  0.048379354  -0.022883169  0.1906628  -0.17921565  0.059565157  -0.028501119  0.12756751  0.0074364613  -0.075649053  -0.035370804  -0.00049585983  -0.0023866778  -0.018531052  -0.013528274  0.024338966  0.0068813148  0.011768017  -0.026807791  0.21315692  -0.11741114  0.14556718  -0.035152867  0.11224476  -0.098671459  0.065436512  -3.0197098e-05  0.055423319  0.050676391  0.019527113  0.031419318  -0.12577024  0.011570033  -0.048768099  -0.10139142  0.053232245  0.056359049  -0.032366492  0.063945688  -0.14525029  0.04156502  0.093479648  0.1073953  0.091470689  -0.080425374  -0.014576216  -0.18552679  -0.11480398  0.10188153  0.13492046  -0.01087401  0.16077371  -0.089920998  -0.16323207  -0.041252337  0.077189155  -0.1023687  0.088276193  0.080832221  0.13297705  0.12040828  0.04200403  0.0799537  -0.12716654  -0.15928705  0.091486953  0.01714227  0.092192568  -0.082954608  -0.21421787  0.021469958  -0.069724187  -0.013150572  -0.086032055  -0.11252456  -0.052717641  -0.023782026  -0.079070315  0.100604  0.086216666  0.072250336  -0.027161989  0.041180886  -0.097201511  0.09298072  -0.17149906  0.0070388112  -0.11946589  -0.010810817  0.044524267  -0.033921313  -0.045418836  0.16062498  0.017604018  -0.02806098  -0.025999421  0.049991235  -0.048532434  -0.14764923  -0.050470803  0.12846446  -0.0040729959  -0.027892822  -0.073974892  -0.0046414635  -0.097119048  -0.0082590552  0.23101732  0.10546713  0.081068411  -0.1145146  -0.030731894  0.067637734  0.0040052747
family 0.075318962  0.012480478  0.040730115  -0.044666465  0.028508537  -0.061494518  -0.19844404  0.17396125  0.14141491  -0.039583426  0.04132263  -0.020862546  -0.046663705  0.21259771  -0.021576608  0.029528163  -0.042588912  -0.053881239  0.068608992  -0.068831183  -0.16813307  0.050774854  0.014619868  -0.037500843  0.027320249  0.12841181  -0.058515422  0.086342305  -0.039504681  0.044460986  -0.18862876  -0.078926571  0.19611561  0.19475386  0.043737341  0.11180162  0.09219753  -0.092742413  -0.12462064  -0.1052106  -0.13649455  -0.050118662  0.044748403  -0.086229354  0.023283351  -0.13824776  -0.043568756  0.018367033  0.058688913  0.059894837  -0.027280597  -0.00099454075  -0.07259655  -0.10427725  0.0014253143  0.082690246  0.12073985  0.15809098  0.072429188  -0.13436764  0.055747323  -0.0035497474  -0.0014590415  0.063537367  0.093612909  0.074868716  0.043795086  -0.065027468  0.029039344  -0.0828529  -0.05093018  -0.022618603  -0.12686433  -0.02879695  -0.14427903  -0.13344006  0.062657997  -0.30592448  -0.11447978  -0.0006989626  -0.12728715  -0.067546912  0.035990246  -0.07768774  -0.025260817  0.16650757  0.021084536  -0.068043843  0.066000991  -0.052773688  -0.065377586  -0.053981572  -0.098029114  -0.13559973  0.082498752  0.13765334  -0.063218661  -0.021038178  0.085910961  -0.048206415  0.021105841  0.041643497  -0.087744191  -0.091752134  -0.092898212  -0.08201582  0.067342252  -0.040058188  0.04085562  -0.064565681  -0.050005987  0.08065749  -0.0036417239  0.057088673  0.08922863  -0.040149156  -0.1498795  0.049972672  0.037012111  -0.030540675
crisis 0.054711707  0.069313072  -0.11994685  -0.013831269  -0.056751668  -0.2240833  0.09558709  0.17534283  -0.1334776  0.13159439  0.077943496  -0.05970522  -0.19222829  0.15740445  -0.10032977  0.038138609  0.106502  0.15715452  -0.0020819448  -0.028186193  -0.042503648  -0.16259106  0.0908335  0.16101061  -0.14319433  -0.0064504826  -0.07195086  -0.026112832  0.011955554  -0.06461779  -0.054895777  -0.08079043  0.012220914  -0.093402848  -0.1502649  -0.11855432  -0.0077964482  0.046133474  0.051196486  0.036717523  -8.4460826e-06  0.0056552449  0.089993499  -0.16557398  -0.0094581461  0.028326575  -0.028724503  0.052898698  0.14750986  -0.060556829  -0.067718573  -0.04063908  -0.04861879  -0.045607567  0.028229808  -0.020589782  -0.12210679  0.075727224  0.12954435  0.019395249  0.14496282  0.049831003  -0.024396183  -0.016866999  0.16325195  -0.039473105  -0.077521712  0.064651661  -0.158291  -0.11159926  -0.047292095  0.12277888  0.097459026  -0.088480763  -0.042359557  -0.084745437  0.19094253  -0.067758694  0.072004139  0.04600054  -0.04832463  0.010482782  -0.14539082  0.03319082  0.03578078  0.029730113  0.019300336  -0.0086855609  -0.048468959  -0.057621721  -0.20713355  -0.042210478  -0.018414766  -0.0054120068  0.0033001644  0.030905319  0.04760877  0.053842451  0.023403188  -0.077614009  0.15017433  0.015055167  -0.041012079  0.033373814  -0.050200429  -0.097496852  0.25498775  0.0017522551  0.18072943  -0.079400197  -0.056974683  -0.047163397  -0.011956337  -0.10936969  0.024905205  -0.063857391  -0.069183089  -0.075626679  -0.010022174  -0.049617454
landscape -0.080956563  0.0071807234  -0.16989911  0.057951059  0.028049013  -0.04809723  0.10640281  0.076003432  -0.064055607  0.081766427  -0.076974265  -0.032928251  -0.061272815  -0.013044011  -0.0447434  0.12480114  0.15561202  0.082809791  0.025298176  -0.044731762  0.0087684682  0.020989673  0.10686595  -0.090820394  0.036311671  0.054967504  -0.063231744  -0.031504694  0.034814656  -0.090672031  -0.011289814  0.017362555  -0.0022873241  0.15344247  0.080637164  -0.025586138  0.0010549619  -0.14127526  0.0017833761  -0.031199282  -0.15945427  -0.0076074055  0.088914521  -0.076020069  -0.094707288  0.08892519  0.087199777  0.045659374  -0.014823523  -0.010130973  -0.16074874  0.058886267  -0.19601254  -0.10928971  0.13194481  0.10983826  0.049125776  0.10558117  -0.067873828  -0.075985648  -0.017349793  0.21475941  0.02074419  -0.10590756  0.083062582  -0.096468039  0.071675979  0.13928482  0.073488496  0.12932397  -0.089123815  0.2013268  -0.0093662757  -0.21657073  0.021630755  -0.023071013  0.066946447  -0.086467929  -0.12450853  -0.13328631  -0.14529759  -0.085345931  0.16348831  -0.0033663728  0.18441844  0.024294497  -0.053147562  0.044863272  -0.053115461  -0.074439153  -0.11857144  -0.029718697  0.10140886  -0.064281434  0.090778522  -0.063329756  -0.11881217  0.02201293  -0.016760424  0.037193969  -0.035556626  -0.11899116  -0.043683641  0.093945071  0.064576745  -0.021654675  0.092525952  -0.050182927  0.097775355  -0.14222832  -0.20930362  -0.032852273  0.1020772  0.001015013  -0.10107642  -0.0033250868  -0.041118674  0.0027673827  0.10393329  0.068195879
confidence 0.15688701  0.072490215  -0.013997065  0.13161433  0.072662704  -0.11772781  0.016015794  0.17922139  -0.005188243  0.10268085  0.024761835  0.056947161  0.046582669  0.06065112  -0.068453953  -0.041149069  0.013965553  0.09256465  -0.1153502  -0.050092328  -0.23984531  -0.041318707  -0.042684305  0.13832425  -0.080875784  0.020630136  -0.071050264  -0.015508711  0.043795012  -0.058411818  -0.11621269  -0.032229684  0.021230234  -0.032641165  -0.06877429  -0.11934537  0.033378087  0.018671492  -0.054206628  0.020909563  0.054365136  0.085879534  -0.0067973984  -0.11321485  -0.024512678  -0.058733489  -0.17361687  0.081579626  0.09834487  -0.10019704  0.036901768  -0.030334022  -0.20599388  -0.053406786  0.027389055  -0.090569891  -0.064884856  0.11866734  0.13972223  -0.060389221  0.11043571  -0.041604985  -0.09997683  0.0022548812  0.24617773  -0.048481647  -0.003144596  0.0095124412  -0.11960663  -0.039433476  -0.27638906  0.20422815  0.08178895  0.013570674  0.04298668  -0.089389093  0.060902838  -0.029793464  -0.041596308  0.034859426  0.078237563  -0.078726709  -0.042239789  -0.062276218  0.10917317  0.037751302  -0.036915582  0.026672577  0.032839436  -0.094818026  -0.010396259  -0.039037421  0.056312524  -0.027884156  0.11492442  -0.059791021  0.14871116  -0.16659984  0.18205044  -0.065139048  -0.022568304  -0.087273426  0.058981918  0.1136982  -0.2001332  -0.1456909  0.053104635  -0.14365941  0.01535665  0.060883224  -0.055672012  0.0080079595  0.04287637  -0.053646639  0.023570895  0.0031876054  -0.06495367  -0.077502348  0.004673271  -0.017133934
eye -0.079337277  0.040719535  -0.061828509  0.042305663  -0.0017067868  0.095337339  -0.090749964  0.10220592  -0.076715089  0.043101642  -0.090637125  -0.077245802  -0.072239943  0.1468696  0.015336328  -0.0062602493  -0.034284856  -0.010439183  0.12226845  -0.030271627  -0.041589424  0.046497464  0.13654582  -0.030714098  0.10313687  0.13647947  0.062143236  0.066264793  4.5568948e-05  -0.034675054  -0.077748999  -0.089351892  0.0016493157  -0.11501139  0.092982993  0.063401565  -0.15875138  -0.091936119  0.049050272  -0.00069123914  -0.11467589  0.030862607  -0.034975074  -0.2318878  -0.054513186  0.051223621  0.052081905  0.14852487  0.20635417  -0.13891721  -0.081934914  0.041719567  0.11545708  -0.21325314  -0.095287293  0.028877093  0.12112904  0.13401586  -0.062489182  -0.02067879  0.068871617  0.12585796  -0.10524156  -0.020149291  0.063168846  -0.11745328  0.001751458  0.078385979  -0.033935118  0.0031896122  -0.22814076  0.087104291  -0.038679715  -0.080123164  0.0089652417  -0.052052636  0.044238899  -0.032571904  -0.038323488  -0.076273471  0.062315002  -0.086053148  0.040059492  -0.044722844  0.11170741  0.046746135  0.071301542  -0.038323101  0.013869491  -0.21710691  0.11796393  -0.068259329  0.047008254  -0.10194321  0.15675418  0.11002432  0.032719798  -0.038804758  -0.11415634  -0.143718  0.07542301  -0.10546754  0.038007673  -0.056962147  -0.024934394  0.016040038  0.10001738  0.029242797  -0.14741386  -0.029372931  -0.17577642  0.043391734  0.095744923  0.088767134  -0.19658549  -0.0097711235  -0.034117665  -0.039486043  0.079672895  -0.004567699
troops 0.090526193  0.026552966  0.068823263  -0.098565355  -0.11974861  0.05508085  0.058833461  0.083735809  -0.098027654  -0.026455766  0.073287457  0.15057829  -0.0148562  -0.02374552  -0.043889359  -0.066870041  0.020497959  0.094487011  -0.087203361  -0.15758753  -0.0098411627  0.0019103319  0.10872371  -0.14049633  0.040163692  -0.059822991  -0.046213634  -0.037106235  -0.06403096  0.029884966  0.022709996  -0.028426599  0.02072013  0.049902972  0.041877542  -0.14222334  0.019320311  -0.12113924  -0.1546869  0.042408533  0.0068048546  -0.10053825  0.029083952  -0.15649845  0.059733793  -0.048983976  0.16885312  0.12322811  -0.037635405  -0.04876091  0.05198209  0.038572878  -0.1442273  -0.064402416  -0.05800524  0.036786158  -0.10492928  0.025575716  0.017167684  0.18408774  0.082859606  0.1089978  -0.014618736  -0.093078442  0.061031684  0.054974325  -0.0073950361  0.049894862  0.0046861991  -0.14230902  -0.22454268  0.029411921  0.0086063752  0.10190405  -0.020475706  -0.037657328  -0.096244216  -0.10396559  -0.021848997  0.12639788  -0.078096099  0.098646298  -0.0040727463  0.025950186  0.17095718  0.14335942  0.026238207  -0.019969655  0.078655958  -0.087211616  0.016340461  -0.10379407  -0.030564245  0.12508179  -0.022358067  0.19348329  0.028467424  0.049066104  0.021349415  0.16717893  0.062423158  0.22040781  -0.20187308  0.15036066  0.055872358  -0.028149413  -0.047907442  -0.014047267  0.06916713  -0.00032981814  -0.071124263  0.032323658  0.1757547  -0.1089564  -0.054586679  0.0031830699  -0.099869594  -0.10142863  -0.019821031  -0.21278888
hospital -0.038544934  -0.093618259  0.068486489  0.049982298  0.046226744  -0.036140583  -0.13544402  0.2962358  0.10692614  -0.040585924  0.056449011  0.0546601  -0.010849789  0.13667229  0.14039803  0.18448699  -0.024366105  -0.14477366  0.18129708  -0.086431645  -0.16509251  0.071504503  0.15444967  0.077702396  -0.0072803851  0.12563069  0.080903135  -0.013507738  -0.047180429  0.077088341  -0.078113168  -0.13798821  0.12841418  0.010011222  0.117707  -0.0043835831  -0.018323516  -0.12308664  0.023713619  -0.11686749  0.058482714  0.047531135  -0.02841448  -0.1701654  -0.028973784  -0.0043493402  -0.0056442693  0.12343212  0.11590552  0.052326173  -0.10695411  0.12516771  0.013987154  -0.051300451  -0.12624946  0.027251104  -0.086326696  0.098905005  0.071432628  -0.033363823  -0.012887779  0.057954986  -0.096792042  -0.060647391  0.0035789807  0.090835139  0.033813417  -0.0082784398  -0.094407298  -0.12543805  -0.11770961  -0.063877635  -0.020692026  0.087561011  -0.099860355  0.053933993  0.084162802  -0.12668966  -0.052710399  0.040915031  0.060515366  0.0064542089  -0.091025472  0.11315182  -0.061020046  -0.012500439  -0.034555521  -0.07301411  0.0077779102  -0.01958829  0.095925547  0.10170811  -0.027043995  -0.15343675  0.076851182  0.14489181  -0.16151518  0.17478195  -0.018031729  -0.0067138043  0.027520066  -0.057649858  -0.21874356  0.0076839407  -0.068047136  -0.0029661066  0.089776404  0.036509186  0.0083597954  0.052807938  -0.0020120034  0.051115416  0.15572467  -0.062092561  -0.11255327  -0.05768735  -0.024542967  -0.055718884  -0.0051447493  -0.057633311
impartiality 0.17999627  0.042431418  0.077896237  0.12876898  -0.10415785  -0.0052958452  0.023527693  0.098329969  0.046255149  0.072203547  0.091923729  0.17966382  -0.0096382899  0.0085705528  0.095757045  -0.061075687  0.18556391  -0.027241468  -0.020390097  -0.0089881765  -0.12116211  -0.018065257  0.13535897  0.059763767  -0.17757313  0.066113062  0.041758612  -0.049386449  -0.026172243  0.12092036  -0.0062338258  0.15395114  -0.090846367  0.04134497  0.15199363  -0.032436233  -0.055238798  -0.2011624  -0.11047443  -0.16322032  -0.13017756  0.035692722  0.11809084  0.039150972  0.01018083  -0.064289264  0.018137334  0.0022352175  0.071832769  -0.13011526  -0.015048421  0.1078395  -0.028592564  0.079167068  -0.0039417674  0.041757479  -0.013034381  -0.0069429106  -0.0041883383  0.096460365  0.13817073  -0.049282461  -0.042550605  -0.065792292  0.18647388  -0.031562191  -0.019667853  -0.018382577  0.15103985  0.13557442  -0.11225922  0.031952348  0.081286043  0.0073706415  0.1141291  -0.022136968  0.15352663  -0.0073500741  -0.10681069  0.020680644  -0.028495433  -0.0053243763  0.013132375  0.15577918  0.0067915102  0.054111838  0.016919864  0.010634146  0.022898901  -0.1000994  -0.025440274  -0.070790201  0.016917322  0.030658133  -0.07727731  0.058422562  0.22104631  -0.047255479  -0.098277695  -0.26616332  0.057622626  -0.012935875  -0.072249807  0.030385975  -0.073644593  -0.088074967  0.090409555  -0.095651105  0.05021653  0.020669393  -0.12479183  0.15273975  0.028555319  -0.044864651  -0.11293573  -0.11639581  0.04217745  0.016389353  0.15886098  -0.045260537
physics -0.058146335  0.046300173  -0.098602667  0.11477239  -0.027126838  -0.088972442  -0.044502445  0.07608369  -0.056760032  0.13867301  -0.11803485  -0.040329751  -0.047991704  0.14515115  -0.051656857  0.11529776  -0.18400255  0.067906074  -0.019179609  -0.083442263  0.023968151  0.13161366  0.026037138  -0.060283441  -0.0077168061  0.05378066  0.18031469  -0.022560626  0.028834254  0.053427167  -0.066403925  -0.0098255547  -0.089070976  0.019853929  0.088731982  -0.024984883  -0.034036465  -0.12640031  0.0065892618  -0.041974001  -0.044668466  -0.035870306  0.21872762  0.050210577  -0.032921325  0.016004467  0.15575384  0.11891814  0.14069778  0.050838381  0.065217033  0.026158474  0.017319009  -0.043454055  0.024837434  0.14976014  -0.2938104  0.095288023  0.10944162  0.08524885  0.05377787  -0.13942683  -0.017624231  0.10179643  -0.12097584  0.058543265  0.040167585  0.0608854  -0.034696825  0.19152959  -0.096401401  0.079644866  -0.032792367  -0.0073755714  0.025596861  -0.057388362  -0.056690726  -0.01926443  -0.036033906  -0.080508143  -0.0033961001  0.0076923952  -0.069575958  -0.033171285  0.29053807  0.057213355  -0.029147917  0.048371997  0.012662194  0.085078046  0.042045046  -0.070343286  0.085174151  -0.23504077  -0.066994593  0.1570867  -0.046357993  0.042419843  -0.022967393  -0.032281023  -0.04378216  -0.21906935  0.066826493  -0.0018545664  -0.041903056  -0.17214185  -0.023679009  0.024849327  0.058508314  0.059783515  -0.099182516  -0.039857388  0.057463076  -0.022292931  -0.057652909  -0.10396485  -0.03664745  -0.024212969  -0.019264519  0.095661283
live 0.061572779  0.16300245  -0.063337877  -0.048848357  0.15166967  0.010933971  -0.043483384  0.018395301  0.064512923  0.02722829  -0.0052247043  -0.034889158  -0.013212749  0.10964657  -0.049385101  0.001179837  -0.024286103  -0.072249867  0.039541565  -0.08557874  -0.047851831  0.24185702  -0.012258837  -0.022984037  0.008323798  0.094463408  -0.056765448  0.013949199  -0.031950217  0.046316195  -0.12935326  0.0037287686  -0.12182411  0.17598656  0.02953341  0.068164475  -0.10530438  -0.16096014  -0.32525799  0.0039937319  -0.14215325  0.012795555  0.042054325  -0.034870114  0.10138798  0.065257825  -0.060287509  0.17211621  0.048927352  0.11802822  -0.20501663  -0.00796506  -0.12881254  -0.035414126  -0.12160005  0.26935121  0.099776067  0.11685041  -0.11858203  0.010186312  -0.06868805  0.043560356  0.0036843643  -0.081399307  0.094604738  0.096842252  0.040876426  1.6358301e-05  -0.028224647  -0.054470915  -0.046303183  0.15970187  -0.017973742  0.071056053  0.02630401  -0.025261438  0.17489597  -0.087516822  -0.11062764  0.086687528  -0.13800082  0.063540161  -0.082773529  -0.0072530378  -0.09004125  0.1207713  -0.010626673  -0.081309892  0.10931406  0.054073457  -0.071007363  -0.060920238  0.048094343  -0.049572024  0.070313931  0.047707219  -0.11975148  0.031826381  0.11199839  -0.029381972  -0.0014006664  0.024361655  -0.1191337  0.010048645  0.06246658  -0.001669239  0.095312469  -0.023784416  0.0088617802  -0.105031  -0.14427857  0.093393698  0.010396238  0.064708591  0.056055512  0.042710129  -0.027234945  -0.025943086  0.093920834  0.014608538
music -0.0011609766  0.23753524  0.017144097  -0.064284422  0.091715299  -0.22502378  0.0079509364  0.068366051  -0.011760482  0.13450326  -0.039221894  -0.034899604  -0.0045264876  0.18047133  -0.013006832  0.0031765515  0.026289936  0.043291118  0.041519247  0.015008381  0.013709263  0.16554067  0.12721184  -0.011626763  -0.01681786  0.10754303  -0.050855897  -0.03914468  -0.06124622  0.067953646  -0.049676061  0.10958998  -0.062307894  0.13622358  0.054079179  0.079787306  -0.036493879  -0.091569349  -0.10191833  -0.12738335  -0.11152345  0.14663979  0.25731146  -0.077048376  0.14828125  -0.020719223  0.040153656  -0.023591459  0.052799091  0.093215726  -0.0042764666  0.092524029  -0.20874046  -0.026125675  -0.0384528  0.21885334  -0.019267946  0.15100095  -0.20410828  0.0066357232  0.051311973  0.22693092  -0.0062100035  -0.062452301  0.063559338  0.15474057  0.012900004  -0.048209038  0.074885152  -0.048908759  -0.055278629  0.12316901  0.003412612  -0.0064792  -0.070824362  -0.18593162  -0.04920185  -0.043563753  -0.085782386  -0.02202112  -0.075604051  0.074636251  -0.030756518  -0.088927381  0.0056301998  0.03870447  -0.048236884  -0.061113145  0.066057965  -0.021375751  0.12393819  -0.0081481086  0.084435605  -0.094505772  -0.0028007342  -0.06183476  -0.043505628  -0.069582835  -0.046398193  0.07770706  0.082601465  -0.15365638  0.10576636  -0.045340907  0.027608341  -0.051106218  0.033357531  -0.0042202761  -0.0056146346  -0.062506296  -0.004895716  0.045961015  0.044221114  0.025745932  -0.013771986  0.0024713553  -0.0013044107  -0.032877609  -0.025148105  0.22118257
type -0.084608123  0.089588262  -0.088382728  0.11432256  0.037801851  0.015389567  -0.080731608  -0.099429592  0.072756797  0.15576163  -0.097481169  -0.070611991  0.051224325  0.16106752  -0.12473194  -0.064202763  -0.17651965  -0.12712038  0.017713742  -0.06874042  -0.049280204  -0.042301275  0.10007606  0.1174238  0.027395509  0.13265261  -0.11347494  0.001264209  -0.013450087  0.059984177  -0.19271445  -0.12437183  0.15546906  0.075124107  -0.0777504  0.078854539  -0.20882419  0.015485744  0.11488173  -0.10997391  -0.14746934  0.047537193  -0.0169088  -0.067033187  -0.027549563  -0.14269899  0.065894529  0.2273958  -0.07392516  0.083800465  -0.13745391  0.078280821  0.21300696  -0.052435212  0.041529495  0.1611979  -0.011332624  0.098244548  0.041017544  0.14267708  -0.055227958  -0.02096148  -0.087674394  -0.098719515  0.11669292  -0.065006293  -0.0044627655  -0.065161616  -0.037545189  -0.031359166  -0.069536969  0.095709361  0.007084976  0.00039979556  0.014303354  -0.015748676  0.086686492  0.017838169  -0.10080648  -0.031619012  0.048070811  -0.030250423  0.050287545  -0.017820561  0.10340258  0.026149979  -0.081335135  -0.15561952  0.0025817587  -0.061908513  0.065239474  -0.12797394  0.030656239  -0.13855757  -0.06511917  0.018740274  -0.023740642  0.12972967  0.0063385749  0.054914396  -0.0058082282  -0.014067295  -0.039077353  -0.09912385  -0.02385976  0.067443222  0.089575343  -0.092532739  -0.13217254  -0.048333488  -0.16977407  0.033340815  0.1214691  0.061633587  -0.12564932  0.06828928  0.027598565  -0.0029228036  0.008498976  -0.059347037
midday 0.099113882  -0.032965593  0.068958178  0.10187562  0.052967042  0.098541766  0.020252399  -0.0075356034  -0.0069811963  -0.16210037  0.030790862  0.091241039  -0.13122831  0.13692915  -0.056393962  0.031970415  0.058239307  0.035944752  -0.072790466  -0.065082297  -0.037307058  0.24088567  0.095800787  0.068327717  -0.058796681  0.027305676  0.070327416  -0.017084969  0.090160429  -0.048287015  0.039457306  -0.050366048  0.25508326  0.0050430358  0.022911726  -0.062869765  -0.011441137  -0.095540434  -0.12064131  -0.091999128  -0.11495361  0.091069601  -0.094756909  -0.15907131  0.25453675  -0.080657579  -0.016459169  0.063233204  0.3057768  -0.177836  0.01514684  0.19330649  -0.03435104  0.0021551729  0.066021211  0.14387682  -0.072019547  0.0060200044  -0.050213292  -0.083217822  0.0046244459  -0.035412293  -0.087311201  0.0644302  -0.00020100031  -0.0020465276  -0.037760593  0.1103934  0.017929126  0.019189414  -0.13334496  -0.0067928927  0.083527498  0.035092473  0.07444194  0.023764929  0.0103334  -0.069749683  0.046003629  -0.10313116  -0.079689257  -0.14977033  -0.10870762  0.13542323  0.069781266  -0.059778545  -0.074132614  0.11821696  -0.079902165  0.078204721  0.11943307  -0.10344698  0.047135472  0.045410316  0.05492413  0.0073803212  -0.10105853  0.042447027  0.078428596  -0.054657996  -0.027000846  0.044236563  -0.078424223  0.09433841  0.0091694267  0.11858407  0.022253284  -0.07357987  -0.025580609  0.0074577569  -0.09956333  -0.082379445  0.036159057  0.01469014  -0.068000853  -0.1208753  -0.066415325  -0.15192242  -0.029292621  0.050305996
possession 0.081850059  0.049728997  -0.10271681  0.12664707  0.0064621237  0.016447023  0.16147158  0.1442754  -0.0068191448  -0.031542923  -0.23065206  0.22489959  0.0090220999  0.072113723  -0.14959185  -0.11041424  -0.10314041  -0.095732138  -0.0088115251  0.0030526959  -0.069711551  0.077694982  -0.088421822  -0.025603952  -0.065550618  0.019459575  -0.1579068  -0.032327011  -0.0043834257  0.033797696  -0.11183546  0.065337166  0.04595571  0.049564246  0.20461181  -0.07929574  -0.16267812  -0.024434183  0.090436071  0.059283458  -0.1011104  0.16575398  0.15113728  0.048665911  0.031212449  0.014714149  -0.006035245  -0.059145238  -0.18580177  0.018449675  -0.031490214  0.16645484  0.05923545  -0.1721054  0.031627003  -0.0012898827  -0.09260828  0.068849407  0.11743058  -0.080512308  -0.005438128  0.037724771  -0.024158556  0.061335079  -0.017977957  0.046838231  0.074694373  -0.085536487  0.068809956  -0.083224073  -0.10681812  0.11737994  0.030075232  0.11135494  -0.099414684  0.067788675  -0.0031334553  0.0063637015  0.13728316  0.043877967  0.04916523  -0.063982077  0.10054242  0.038167182  -0.067058519  0.21642035  0.026500231  -0.064847469  -0.10232069  0.0070807887  -0.0085209124  0.025910893  -0.11875001  -0.088755578  -0.022107171  0.001515215  0.017236441  -0.1625817  -0.10101394  -0.031752352  0.063378371  -0.10839201  -0.060712848  -0.10503745  0.071975917  0.03550088  0.23279233  -0.075669095  -0.060817383  0.012248001  -0.098025635  0.071392357  -0.024379397  -0.063325353  -0.031649593  -0.11175448  -0.013256507  -0.058488637  -0.033447437  -0.057018146
holy -0.17522897  0.044224795  -0.042288821  0.062388148  -0.19402722  -0.05399489  -0.00051721808  0.08115042  -0.063414447  -0.036200225  -0.011800519  0.04004747  0.012488259  0.12330264  -0.24841984  -0.10236653  0.070276357  -0.047060613  -0.05695802  -0.056874596  -0.026879711  0.11965167  -0.091264941  -0.23400936  0.044497546  0.0087612467  -0.12303733  -0.040876705  0.056376118  -0.071916215  0.020762552  -0.14125909  0.16560481  0.1624337  0.099263407  0.060199495  -0.051284891  -0.34356189  0.097832069  -0.045553744  -0.18082371  -0.060974713  0.09672609  -0.052546401  -0.0042895051  -0.065499708  0.023229914  0.097252533  0.071931593  0.00086488767  0.030194055  -0.042037077  -0.030030075  -0.089427665  -0.037556514  0.059316322  -0.00074979471  0.043808255  0.06759984  0.021641281  -0.022337448  0.018618261  -0.13519654  -0.0039613536  0.028974464  0.11415374  -0.060798232  0.036464691  -0.0018916902  -0.055777721  0.038979474  -0.0089462027  0.028491488  0.032258429  -0.031250913  -0.031214284  0.091446005  -0.056506842  0.017585706  0.025823368  -0.15551238  -0.16947851  -0.14466925  0.0078987135  0.1068711  0.13016418  -0.042903971  -0.14062898  0.11718797  -0.092598654  0.033471368  0.097840071  -0.022022981  0.023946363  -0.0077917846  0.03918083  -0.10779563  0.14579104  0.097994737  -0.069179222  0.028346376  0.0050862525  -0.21750529  -0.063363813  0.026222697  -0.087613173  0.030106548  0.067553289  0.081430472  -0.0081221405  0.052668441  -0.058289163  0.1520621  -0.0045206244  0.092378497  0.020725308  -0.0090791136  -0.04942314  0.066825718  0.074903436
